<?xml version="1.0"?>
<opencv_storage>
<opencv_ml_svm>
  <format>3</format>
  <svmType>C_SVC</svmType>
  <kernel>
    <type>RBF</type>
    <gamma>5.0625000000000009e-01</gamma></kernel>
  <C>3.1250000000000000e+02</C>
  <term_criteria><iterations>100</iterations></term_criteria>
  <var_count>32</var_count>
  <class_count>36</class_count>
  <class_labels type_id="opencv-matrix">
    <rows>36</rows>
    <cols>1</cols>
    <dt>i</dt>
    <data>
      0 1 2 3 4 5 6 7 8 9 10 11 12 13 14 15 16 17 18 19 20 21 22 23 24
      25 26 27 28 29 30 31 32 33 34 35</data></class_labels>
  <sv_total>196</sv_total>
  <support_vectors>
    <_>
      4.74999994e-02 1.00000001e-01 1.00000001e-01 4.74999994e-02
      1.09999999e-01 0. 0. 1.09999999e-01 1.09999999e-01 0. 0.
      1.09999999e-01 4.74999994e-02 1.00000001e-01 1.00000001e-01
      1.75000001e-02 2.95000017e-01 2.19999999e-01 2.19999999e-01
      2.65000015e-01 3.14999998e-01 2.00000003e-01 2.00000003e-01
      2.84999996e-01 6.49999976e-02 9.49999988e-02 2.57499993e-01
      2.57499993e-01 2.57499993e-01 2.27500007e-01 0. 1.00000012e+00</_>
    <_>
      5.58292270e-02 1.31362885e-01 1.14942528e-01 6.40394092e-02
      7.38916248e-02 0. 0. 7.22495914e-02 7.71756992e-02 0. 0.
      7.22495914e-02 5.91133013e-02 1.31362885e-01 1.05090313e-01
      4.26929407e-02 3.66174042e-01 1.46141216e-01 1.49425298e-01
      3.38259429e-01 2.66009837e-01 2.62725770e-01 2.20032841e-01
      2.51231521e-01 9.85221714e-02 1.23152710e-01 2.61083722e-01
      2.51231521e-01 2.67651886e-01 2.20032856e-01 0. 1.</_>
    <_>
      6.37254938e-02 1.09477125e-01 1.04575165e-01 6.04575165e-02
      8.49673226e-02 0. 0. 6.69934675e-02 8.33333358e-02 0. 0.
      7.35294148e-02 6.04575165e-02 1.25817001e-01 1.07843138e-01
      5.88235296e-02 3.38235319e-01 1.51960790e-01 1.56862751e-01
      3.52941185e-01 2.92483687e-01 2.35294133e-01 2.12418303e-01
      2.59803921e-01 1.22549027e-01 1.20915033e-01 2.58169949e-01
      2.32026160e-01 2.69607842e-01 2.40196079e-01 0. 1.00000012e+00</_>
    <_>
      7.17703328e-02 1.18022330e-01 1.21212125e-01 6.37958497e-02
      7.01754391e-02 0. 0. 7.33652338e-02 6.85805455e-02 0. 0.
      7.49601275e-02 6.22009560e-02 1.06858052e-01 1.10047847e-01
      5.90111651e-02 3.74800622e-01 1.43540680e-01 1.43540680e-01
      3.38118017e-01 2.72727281e-01 2.24880382e-01 2.31259972e-01
      2.71132380e-01 1.30781502e-01 1.25996798e-01 2.59968102e-01
      2.58373201e-01 2.37639546e-01 2.44019136e-01 0. 1.00000012e+00</_>
    <_>
      6.06060624e-02 1.13636367e-01 1.13636367e-01 6.06060624e-02
      7.95454532e-02 0. 0. 7.95454532e-02 7.19696954e-02 0. 0.
      7.57575780e-02 5.87121211e-02 1.13636367e-01 1.13636367e-01
      5.87121211e-02 3.48484874e-01 1.59090906e-01 1.47727281e-01
      3.44696969e-01 2.70833343e-01 2.27272734e-01 2.27272734e-01
      2.74621218e-01 1.19318187e-01 1.19318187e-01 2.53787875e-01
      2.53787875e-01 2.44318187e-01 2.48106062e-01 0. 1.</_>
    <_>
      6.36215359e-02 1.09298535e-01 1.04404569e-01 6.03588894e-02
      8.64600316e-02 0. 0. 6.68841749e-02 8.31973925e-02 0. 0.
      7.34094605e-02 6.03588894e-02 1.25611752e-01 1.07667208e-01
      5.87275699e-02 3.37683529e-01 1.53344214e-01 1.56606853e-01
      3.52365404e-01 2.93637842e-01 2.34910280e-01 2.12071776e-01
      2.59380102e-01 1.22349106e-01 1.20717779e-01 2.59380102e-01
      2.31647626e-01 2.69168019e-01 2.39804238e-01 0. 9.99999940e-01</_>
    <_>
      5.53191490e-02 1.27659574e-01 1.27659574e-01 5.31914905e-02
      7.02127665e-02 0. 0. 7.02127665e-02 6.59574494e-02 0. 0.
      7.44680837e-02 4.46808524e-02 1.27659574e-01 1.27659574e-01
      5.53191490e-02 3.63829792e-01 1.40425533e-01 1.40425533e-01
      3.55319172e-01 2.36170217e-01 2.55319148e-01 2.55319148e-01
      2.53191501e-01 1.10638298e-01 9.78723466e-02 2.53191471e-01
      2.51063824e-01 2.38297880e-01 2.57446826e-01 0. 9.99999940e-01</_>
    <_>
      2.20883526e-02 1.00401610e-01 1.00401610e-01 2.20883526e-02
      7.22891539e-02 4.01606411e-02 4.01606411e-02 9.63855386e-02
      8.43373463e-02 4.01606411e-02 4.01606411e-02 9.63855386e-02
      2.20883526e-02 1.00401610e-01 1.00401610e-01 2.20883526e-02
      2.44979918e-01 2.48995975e-01 2.61044174e-01 2.44979918e-01
      2.00803190e-01 2.81124502e-01 2.81124502e-01 2.36947775e-01
      1.24497980e-01 1.24497980e-01 2.34939754e-01 2.59036124e-01
      2.46987954e-01 2.59036154e-01 1.60642564e-01 8.39357436e-01</_>
    <_>
      5.37634417e-02 1.14695340e-01 1.25448033e-01 5.91397844e-02
      7.34767020e-02 0. 0. 7.34767020e-02 6.98924735e-02 0. 0.
      8.06451589e-02 6.45161271e-02 1.14695340e-01 1.25448033e-01
      4.48028669e-02 3.53046596e-01 1.46953404e-01 1.50537640e-01
      3.49462360e-01 2.61648744e-01 2.29390681e-01 2.50896066e-01
      2.58064508e-01 9.85663086e-02 1.23655915e-01 2.41935492e-01
      2.58064508e-01 2.49103934e-01 2.50896066e-01 0. 1.</_>
    <_>
      5.13833985e-02 7.70751014e-02 6.91699609e-02 4.44664024e-02
      8.30039531e-02 3.95256914e-02 3.95256914e-02 8.69565234e-02
      8.30039531e-02 3.95256914e-02 3.95256914e-02 8.49802345e-02
      5.33596836e-02 7.90513828e-02 7.90513828e-02 5.03952578e-02
      2.42094874e-01 2.49011844e-01 2.47035563e-01 2.61857688e-01
      2.70750970e-01 2.35177875e-01 2.27272719e-01 2.66798407e-01
      1.80830032e-01 1.76877469e-01 2.50988156e-01 2.40118563e-01
      2.54940718e-01 2.53952563e-01 1.58102766e-01 8.41897249e-01</_>
    <_>
      4.65444289e-02 5.64174913e-03 0. 0. 9.16784182e-02 1.26939351e-02
      1.41043719e-02 1.97461210e-02 1.25528917e-01 1.39633283e-01
      1.41043723e-01 1.26939356e-01 7.47531727e-02 7.05218613e-02
      7.05218613e-02 6.06488027e-02 5.21861762e-02 1.38222843e-01
      5.33145308e-01 2.76445687e-01 3.38504910e-01 2.28490829e-01
      2.25669950e-01 2.07334280e-01 2.60930896e-01 2.28490829e-01
      1.56558543e-01 3.38504910e-02 4.10437226e-01 3.99153739e-01
      3.07475328e-01 6.92524672e-01</_>
    <_>
      4.16024663e-02 9.24499240e-03 0. 0. 1.01694912e-01 1.54083204e-02
      1.54083204e-02 3.23574729e-02 1.38674885e-01 1.54083207e-01
      1.54083207e-01 1.38674885e-01 7.39599392e-02 4.62249629e-02
      4.62249629e-02 3.23574729e-02 5.08474596e-02 1.64869025e-01
      5.85516214e-01 1.98767334e-01 3.55932206e-01 2.24961489e-01
      2.15716496e-01 2.03389823e-01 2.43451461e-01 2.43451476e-01
      1.67950690e-01 4.77657914e-02 4.12943006e-01 3.71340543e-01
      3.38983059e-01 6.61016881e-01</_>
    <_>
      3.80622819e-02 0. 0. 0. 9.86159146e-02 0. 0. 0. 1.43598616e-01
      1.38408303e-01 1.38408303e-01 1.14186853e-01 5.88235296e-02
      8.30449834e-02 1.03806227e-01 8.30449834e-02 3.80622819e-02
      9.86159146e-02 5.34602046e-01 3.28719735e-01 3.39100331e-01
      2.21453279e-01 2.42214531e-01 1.97231829e-01 2.59515554e-01
      1.97231829e-01 1.36678189e-01 0. 4.23875421e-01 4.39446360e-01
      2.76816607e-01 7.23183393e-01</_>
    <_>
      4.26621176e-02 0. 0. 0. 1.10921502e-01 3.41296941e-02
      6.82593836e-03 0. 1.36518776e-01 1.70648471e-01 1.43344715e-01
      1.09215014e-01 2.73037534e-02 6.48464188e-02 8.53242353e-02
      6.82593882e-02 4.26621176e-02 1.51877135e-01 5.59726954e-01
      2.45733798e-01 3.17406148e-01 2.69624591e-01 2.35494882e-01
      1.77474409e-01 2.88395911e-01 2.04778165e-01 1.87713310e-01
      6.82593836e-03 3.99317414e-01 4.06143337e-01 3.54948819e-01
      6.45051241e-01</_>
    <_>
      7.10479589e-03 0. 0. 0. 1.03019536e-01 1.06571935e-01
      1.06571935e-01 7.46003538e-02 1.24333926e-01 1.42095909e-01
      1.63410306e-01 1.24333926e-01 1.24333929e-02 8.88099428e-03
      1.42095918e-02 1.24333929e-02 7.10479589e-03 3.90763760e-01
      5.54174066e-01 4.79573682e-02 2.46891662e-01 2.57548839e-01
      2.84191847e-01 2.11367682e-01 2.89520413e-01 2.61101216e-01
      2.16696262e-01 1.81172282e-01 2.87744224e-01 3.14387202e-01
      5.18650055e-01 4.81349885e-01</_>
    <_>
      4.02985066e-02 8.95522349e-03 0. 0. 9.70149264e-02 0. 0.
      4.47761174e-03 1.32835820e-01 1.34328365e-01 1.34328365e-01
      1.20895520e-01 8.05970132e-02 8.95522386e-02 8.95522386e-02
      6.71641827e-02 4.92537320e-02 1.01492539e-01 5.22388041e-01
      3.26865673e-01 3.50746244e-01 2.32835829e-01 2.23880604e-01
      1.92537308e-01 2.41791055e-01 2.14925379e-01 1.46268666e-01
      4.47761174e-03 4.37313437e-01 4.11940277e-01 2.68656731e-01
      7.31343269e-01</_>
    <_>
      7.28241578e-02 1.24333929e-02 3.55239795e-03 9.76909399e-02
      9.23623443e-02 0. 9.59147438e-02 1.08348139e-01 9.94671434e-02
      6.74955621e-02 7.28241578e-02 7.10479543e-02 6.21669628e-02
      8.52575526e-02 0. 5.86145632e-02 1.86500892e-01 2.96625227e-01
      3.10834825e-01 2.06039086e-01 3.26820582e-01 1.65186509e-01
      1.72291309e-01 3.35701585e-01 2.04262882e-01 3.23268205e-01
      1.77619904e-01 3.05506229e-01 3.14387232e-01 2.02486679e-01
      2.36234456e-01 7.63765574e-01</_>
    <_>
      5.41760735e-02 3.16027105e-02 0. 1.01580136e-01 1.03837475e-01 0.
      8.57787803e-02 1.21896163e-01 8.80361199e-02 3.83747183e-02
      7.67494366e-02 9.02934521e-02 4.51467261e-02 1.12866819e-01 0.
      4.96613979e-02 1.87358916e-01 3.11512411e-01 2.93453753e-01
      2.07674950e-01 2.91196406e-01 1.82844251e-01 1.62528217e-01
      3.63431156e-01 1.80586904e-01 2.70880371e-01 1.89616263e-01
      3.09255064e-01 2.84424394e-01 2.16704279e-01 2.00902939e-01
      7.99097061e-01</_>
    <_>
      4.57665920e-02 2.05949657e-02 2.28832942e-03 8.69565234e-02
      1.09839819e-01 4.57665883e-03 6.40732273e-02 1.37299776e-01
      9.61098373e-02 2.74599548e-02 7.78032020e-02 9.15331841e-02
      6.63615540e-02 1.02974832e-01 2.28832942e-03 6.40732273e-02
      1.55606419e-01 3.15789491e-01 2.92906165e-01 2.35697925e-01
      3.18077803e-01 1.55606419e-01 1.46453083e-01 3.79862726e-01
      1.92219675e-01 2.44851261e-01 1.80778027e-01 2.90617853e-01
      2.92906165e-01 2.35697925e-01 1.73913047e-01 8.26086938e-01</_>
    <_>
      8.36575851e-02 1.36186769e-02 1.94552529e-03 1.05058365e-01
      9.14396867e-02 0. 8.75486359e-02 1.26459137e-01 8.94941613e-02
      5.05836569e-02 7.39299580e-02 7.78210089e-02 5.83657585e-02
      8.17120597e-02 0. 5.83657585e-02 2.04280153e-01 3.05447459e-01
      2.91828781e-01 1.98443577e-01 3.22957188e-01 1.45914391e-01
      1.63424119e-01 3.67704272e-01 2.15953305e-01 3.01556408e-01
      1.88715950e-01 3.21011662e-01 2.80155629e-01 2.10116729e-01
      2.12062240e-01 7.87937760e-01</_>
    <_>
      5.77933453e-02 2.27670744e-02 1.75131345e-03 9.80735570e-02
      9.45709273e-02 1.75131345e-03 7.70577937e-02 1.20840631e-01
      8.93169865e-02 3.50262709e-02 7.70577937e-02 8.75656754e-02
      6.47986010e-02 1.05078809e-01 1.75131345e-03 6.47986010e-02
      1.80385292e-01 2.94220656e-01 2.88966715e-01 2.36427337e-01
      3.06479841e-01 1.64623469e-01 1.57618210e-01 3.71278465e-01
      2.01401055e-01 2.74956226e-01 1.76882669e-01 2.97723293e-01
      2.94220686e-01 2.31173396e-01 1.90893173e-01 8.09106827e-01</_>
    <_>
      6.04575165e-02 1.96078438e-02 1.63398695e-03 1.07843138e-01
      9.31372568e-02 1.63398695e-03 7.84313753e-02 1.07843138e-01
      8.82352963e-02 3.43137272e-02 7.51634017e-02 8.16993490e-02
      7.02614412e-02 1.14379086e-01 1.63398695e-03 6.37254938e-02
      1.89542487e-01 2.81045765e-01 2.79411763e-01 2.50000000e-01
      3.12091529e-01 1.69934645e-01 1.56862751e-01 3.61111134e-01
      2.00980395e-01 2.90849686e-01 1.74836606e-01 2.95751631e-01
      3.07189554e-01 2.22222239e-01 1.89542502e-01 8.10457528e-01</_>
    <_>
      6.83918670e-02 2.03327164e-02 1.84842886e-03 9.98151600e-02
      9.79667306e-02 0. 8.68761539e-02 1.31238446e-01 9.24214423e-02
      4.62107211e-02 8.13308656e-02 7.39371553e-02 4.43622917e-02
      9.61183012e-02 0. 5.91497235e-02 1.90388173e-01 3.16081345e-01
      2.93900192e-01 1.99630320e-01 3.03142309e-01 1.62661731e-01
      1.70055449e-01 3.64140481e-01 2.08872452e-01 2.77264327e-01
      1.86691314e-01 3.19778204e-01 2.79112756e-01 2.14417741e-01
      2.14417741e-01 7.85582304e-01</_>
    <_>
      5.82191795e-02 2.73972601e-02 3.42465751e-03 9.58904102e-02
      8.90410990e-02 3.42465751e-03 8.04794505e-02 1.11301370e-01
      8.73287693e-02 5.30821905e-02 8.39041099e-02 6.84931502e-02
      6.67808205e-02 1.07876711e-01 1.02739725e-02 5.30821905e-02
      1.84931517e-01 2.84246564e-01 2.92808235e-01 2.38013685e-01
      3.01369846e-01 1.91780820e-01 1.78082198e-01 3.28767121e-01
      1.98630154e-01 2.96232879e-01 1.78082198e-01 2.91095883e-01
      3.15068483e-01 2.15753436e-01 2.20890403e-01 7.79109597e-01</_>
    <_>
      6.80933818e-02 1.55642023e-02 1.36186769e-02 6.42023310e-02
      8.17120597e-02 1.55642023e-02 2.14007776e-02 8.94941613e-02
      8.56031105e-02 6.03112839e-02 6.42023310e-02 8.36575851e-02
      5.44747077e-02 1.03112839e-01 1.05058365e-01 7.39299580e-02
      1.61478594e-01 2.08171204e-01 2.93774307e-01 3.36575866e-01
      2.89883256e-01 1.94552526e-01 2.04280138e-01 3.11284035e-01
      2.21789867e-01 2.00389102e-01 1.80933848e-01 1.88715950e-01
      3.03501934e-01 3.26848239e-01 1.61478594e-01 8.38521361e-01</_>
    <_>
      3.64464708e-02 0. 0. 2.27790438e-02 1.13895215e-01 4.32801805e-02
      3.41685638e-02 7.74487481e-02 1.32118449e-01 1.82232350e-01
      6.83371276e-02 6.83371276e-02 6.83371276e-02 3.64464708e-02
      8.20045546e-02 3.41685638e-02 5.92255145e-02 2.68792719e-01
      4.51025069e-01 2.20956713e-01 3.50797296e-01 2.61959016e-01
      1.84510246e-01 2.02733487e-01 1.82232350e-01 3.07517081e-01
      1.93621874e-01 1.34396359e-01 4.19134408e-01 2.52847373e-01
      3.28018248e-01 6.71981752e-01</_>
    <_>
      6.72645718e-02 1.94319878e-02 1.64424516e-02 7.17488825e-02
      7.77279511e-02 2.39162929e-02 2.54110619e-02 8.07174891e-02
      8.37070271e-02 5.53064272e-02 5.53064272e-02 8.22122544e-02
      5.82959652e-02 1.09118089e-01 1.04633778e-01 6.87593445e-02
      1.74887896e-01 2.07772806e-01 2.76532114e-01 3.40807170e-01
      2.86995530e-01 2.07772791e-01 2.01793715e-01 3.03437978e-01
      2.15246648e-01 2.10762337e-01 1.88340798e-01 1.94319874e-01
      3.06427509e-01 3.10911804e-01 1.59940213e-01 8.40059757e-01</_>
    <_>
      6.60225451e-02 1.61030591e-02 2.41545886e-02 5.63607067e-02
      9.33977440e-02 2.25442834e-02 1.77133661e-02 9.50080529e-02
      8.69565234e-02 6.28019348e-02 5.31400964e-02 8.37359130e-02
      6.28019348e-02 9.82286632e-02 1.03059582e-01 5.79710156e-02
      1.62640899e-01 2.28663445e-01 2.86634475e-01 3.22061181e-01
      3.09178740e-01 1.99677944e-01 1.98067635e-01 2.93075681e-01
      1.99677929e-01 1.99677944e-01 1.98067620e-01 1.93236709e-01
      3.10789049e-01 2.97906637e-01 1.56199679e-01 8.43800366e-01</_>
    <_>
      6.52591139e-02 2.49520149e-02 2.49520149e-02 7.10172728e-02
      7.67754316e-02 1.53550860e-02 1.53550860e-02 8.25335905e-02
      7.86948204e-02 5.95009588e-02 5.95009588e-02 8.25335905e-02
      5.95009588e-02 1.09404989e-01 1.09404989e-01 6.52591139e-02
      1.86180413e-01 1.90019190e-01 2.80230343e-01 3.43570054e-01
      2.80230314e-01 2.09213048e-01 2.09213048e-01 3.01343560e-01
      2.05374271e-01 2.05374286e-01 1.82341635e-01 1.93857968e-01
      3.07101727e-01 3.16698670e-01 1.49712086e-01 8.50287855e-01</_>
    <_>
      4.09638546e-02 0. 2.53012050e-02 5.42168692e-02 1.08433738e-01
      4.09638546e-02 4.21686731e-02 1.07228912e-01 1.08433738e-01
      1.09638557e-01 7.95180723e-02 1.03614457e-01 7.71084353e-02
      3.13253030e-02 4.69879508e-02 2.40963846e-02 1.20481931e-01
      2.98795193e-01 4.01204824e-01 1.79518074e-01 3.34939778e-01
      1.81927711e-01 1.93975896e-01 2.89156616e-01 1.85542166e-01
      2.83132523e-01 1.90361455e-01 2.28915662e-01 3.26506048e-01
      2.54216850e-01 2.72289157e-01 7.27710783e-01</_>
    <_>
      6.63265288e-02 1.02040814e-02 2.04081628e-02 5.10204099e-02
      7.90816322e-02 2.55102050e-02 1.27551025e-02 9.18367356e-02
      7.39795938e-02 9.69387740e-02 8.16326514e-02 7.39795938e-02
      5.10204099e-02 1.07142858e-01 1.12244897e-01 4.59183678e-02
      1.47959188e-01 2.09183678e-01 3.26530606e-01 3.16326529e-01
      2.70408154e-01 2.39795923e-01 2.27040812e-01 2.62755126e-01
      2.19387770e-01 2.11734697e-01 1.81122452e-01 1.76020414e-01
      3.29081655e-01 3.13775510e-01 2.16836721e-01 7.83163249e-01</_>
    <_>
      6.66666701e-02 1.04166670e-02 1.45833334e-02 5.20833321e-02
      8.54166672e-02 2.70833336e-02 2.08333340e-02 8.54166672e-02
      9.16666687e-02 8.95833299e-02 8.54166672e-02 8.54166672e-02
      5.41666672e-02 8.33333358e-02 1.02083333e-01 4.58333343e-02
      1.43749997e-01 2.18750000e-01 3.52083355e-01 2.85416663e-01
      2.97916681e-01 2.10416675e-01 2.22916663e-01 2.68750012e-01
      2.25000009e-01 2.16666669e-01 1.89583331e-01 1.72916666e-01
      3.18750024e-01 3.18750024e-01 2.22916663e-01 7.77083337e-01</_>
    <_>
      4.76190485e-02 2.14285720e-02 9.52380989e-03 4.52380963e-02
      1.00000001e-01 1.66666675e-02 1.42857144e-02 9.28571448e-02
      1.04761906e-01 7.14285746e-02 8.57142881e-02 1.00000001e-01
      4.76190485e-02 1.09523810e-01 9.04761925e-02 4.28571440e-02
      1.23809531e-01 2.23809540e-01 3.61904770e-01 2.90476203e-01
      3.00000012e-01 2.19047636e-01 2.00000003e-01 2.80952394e-01
      1.92857146e-01 1.78571433e-01 1.85714290e-01 1.61904767e-01
      3.33333343e-01 3.19047630e-01 1.88095242e-01 8.11904848e-01</_>
    <_>
      0. 1.31086139e-02 1.12359554e-01 4.49438207e-02 5.61797768e-02
      1.46067411e-01 5.61797768e-02 6.17977530e-02 8.42696652e-02
      2.99625471e-02 1.36704117e-01 1.47940069e-01 0. 7.49063678e-03
      3.74531820e-02 6.55430704e-02 1.70411989e-01 3.20224702e-01
      3.98876399e-01 1.10486887e-01 1.40449435e-01 1.96629196e-01
      3.42696607e-01 3.20224702e-01 3.48314583e-01 1.31086141e-01
      2.15355799e-01 2.75280893e-01 1.21722847e-01 3.87640417e-01
      3.68913859e-01 6.31086111e-01</_>
    <_>
      0. 8.60215072e-03 1.07526883e-01 4.94623668e-02 8.17204267e-02
      1.54838711e-01 7.09677413e-02 6.45161271e-02 7.09677413e-02
      2.58064512e-02 1.46236554e-01 1.50537640e-01 0. 0. 1.93548389e-02
      4.94623668e-02 1.65591404e-01 3.72043014e-01 3.93548369e-01
      6.88172057e-02 1.52688175e-01 1.89247325e-01 3.44086021e-01
      3.13978493e-01 3.50537658e-01 1.46236569e-01 2.45161295e-01
      2.92473108e-01 9.67741907e-02 3.65591437e-01 3.97849441e-01
      6.02150500e-01</_>
    <_>
      0. 2.57352944e-02 1.26838237e-01 6.43382370e-02 9.19117630e-02
      1.26838237e-01 4.22794111e-02 6.80147037e-02 4.59558815e-02
      2.57352944e-02 1.34191170e-01 1.37867644e-01 0. 3.67647060e-03
      3.30882370e-02 7.35294148e-02 2.16911763e-01 3.29044133e-01
      3.43750000e-01 1.10294119e-01 1.37867644e-01 1.81985289e-01
      3.36397052e-01 3.43750000e-01 3.34558845e-01 1.32352933e-01
      2.44485289e-01 3.01470578e-01 7.53676519e-02 3.78676474e-01
      3.29044104e-01 6.70955837e-01</_>
    <_>
      0. 1.25786159e-02 1.00628927e-01 0. 6.28930796e-03 1.08490564e-01
      1.24213837e-01 0. 9.74842757e-02 1.08490564e-01 1.28930822e-01
      3.77358496e-02 4.55974825e-02 6.28930852e-02 1.00628927e-01
      6.60377368e-02 1.13207541e-01 2.38993704e-01 3.72641534e-01
      2.75157243e-01 1.49371073e-01 2.92452842e-01 4.54402506e-01
      1.03773586e-01 3.03459138e-01 2.78301895e-01 1.27358496e-01
      2.24842757e-01 3.14465433e-01 3.33333343e-01 4.70125794e-01
      5.29874206e-01</_>
    <_>
      0. 1.77865606e-02 1.14624508e-01 4.74308282e-02 9.88142267e-02
      1.44268781e-01 7.11462423e-02 5.92885390e-02 5.73122539e-02
      2.76679844e-02 1.44268781e-01 1.36363640e-01 0. 3.95256933e-03
      2.96442695e-02 4.74308282e-02 1.79841891e-01 3.73517781e-01
      3.65612656e-01 8.10276717e-02 1.56126484e-01 1.93675891e-01
      3.59683812e-01 2.90513813e-01 3.35968375e-01 1.46245062e-01
      2.60869563e-01 2.92490125e-01 8.89328048e-02 3.57707560e-01
      3.87351811e-01 6.12648189e-01</_>
    <_>
      0. 7.79727101e-03 1.01364523e-01 4.67836261e-02 6.43274859e-02
      1.50097460e-01 7.01754391e-02 5.84795326e-02 8.77192989e-02
      3.11890841e-02 1.30604282e-01 1.42300189e-01 0. 5.84795326e-03
      4.09356728e-02 6.23781681e-02 1.55945420e-01 3.43079925e-01
      3.91812861e-01 1.09161794e-01 1.52046785e-01 1.94931775e-01
      3.43079895e-01 3.09941530e-01 3.43079925e-01 1.48148149e-01
      2.22222209e-01 2.76803136e-01 1.24756336e-01 3.76218289e-01
      3.82066250e-01 6.17933691e-01</_>
    <_>
      0. 2.65654642e-02 1.17647059e-01 6.45161271e-02 9.86717269e-02
      1.27134725e-01 5.50284646e-02 5.88235296e-02 4.17457297e-02
      2.65654642e-02 1.38519928e-01 1.34724855e-01 0. 3.79506638e-03
      3.41555960e-02 7.21062645e-02 2.08728656e-01 3.39658439e-01
      3.41555983e-01 1.10056922e-01 1.40417457e-01 1.84060723e-01
      3.45351040e-01 3.30170780e-01 3.37760925e-01 1.46110058e-01
      2.52371907e-01 2.96015173e-01 7.21062571e-02 3.79506677e-01
      3.47248584e-01 6.52751386e-01</_>
    <_>
      6.90789446e-02 1.08552635e-01 3.94736826e-02 4.11184207e-02
      6.90789446e-02 6.74342141e-02 1.80921052e-02 8.88157859e-02
      6.90789446e-02 6.57894760e-02 1.64473690e-02 9.70394760e-02
      3.12500000e-02 3.28947380e-02 1.11842103e-01 7.40131587e-02
      2.58223683e-01 2.43421048e-01 2.48355255e-01 2.50000000e-01
      2.38486826e-01 2.74671078e-01 1.85855269e-01 3.00986826e-01
      2.26973683e-01 1.56250000e-01 3.14144760e-01 1.87500000e-01
      1.99013144e-01 2.99342096e-01 1.67763159e-01 8.32236826e-01</_>
    <_>
      8.84773657e-02 1.27572015e-01 5.96707836e-02 5.76131679e-02
      6.58436194e-02 6.79012313e-02 0. 6.58436194e-02 7.61316866e-02
      7.61316866e-02 4.11522649e-02 7.61316866e-02 4.52674888e-02
      2.05761325e-02 1.00823045e-01 3.08641978e-02 3.33333313e-01
      1.99588478e-01 2.69547343e-01 1.97530851e-01 2.75720149e-01
      2.92181075e-01 2.01646090e-01 2.30452672e-01 2.28395060e-01
      1.79012343e-01 3.49794209e-01 1.83127582e-01 2.18107000e-01
      2.48971194e-01 1.85185194e-01 8.14814746e-01</_>
    <_>
      5.52016981e-02 6.36942685e-02 4.03397046e-02 3.60934176e-02
      9.34182554e-02 7.74946958e-02 4.67091277e-02 8.91719759e-02
      8.49256888e-02 6.36942685e-02 4.88322712e-02 9.23566893e-02
      5.94479814e-02 3.71549912e-02 7.43099824e-02 3.71549912e-02
      1.95329085e-01 3.06794047e-01 2.89808899e-01 2.08067939e-01
      2.92993605e-01 2.42038220e-01 2.10191071e-01 2.54777074e-01
      2.18683645e-01 2.05944806e-01 2.89808929e-01 2.12314218e-01
      2.45222911e-01 2.52653956e-01 2.36730367e-01 7.63269663e-01</_>
    <_>
      8.49909559e-02 1.37432188e-01 4.70162742e-02 6.32911399e-02
      7.41410479e-02 7.95660019e-02 1.80831831e-03 7.05244094e-02
      6.14828207e-02 7.59493634e-02 2.16998197e-02 8.31826404e-02
      3.97830009e-02 1.98915005e-02 1.04882456e-01 3.43580469e-02
      3.32730532e-01 2.26039782e-01 2.42314637e-01 1.98915005e-01
      2.60397822e-01 3.12839061e-01 1.75406873e-01 2.51356244e-01
      2.20614821e-01 1.80831820e-01 3.76130193e-01 1.82640135e-01
      1.97106689e-01 2.44122982e-01 1.79023504e-01 8.20976496e-01</_>
    <_>
      6.87679052e-02 8.59598890e-02 3.43839526e-02 3.43839526e-02
      9.16905478e-02 8.59598890e-02 1.71919763e-02 8.88252184e-02
      8.59598890e-02 7.16332346e-02 1.71919763e-02 8.59598890e-02
      3.43839526e-02 2.72206310e-02 1.11747853e-01 5.87392561e-02
      2.23495692e-01 2.83667624e-01 2.60744989e-01 2.32091695e-01
      2.80802280e-01 2.70773649e-01 1.80515766e-01 2.67908305e-01
      2.30659023e-01 1.57593116e-01 3.32378209e-01 1.74785107e-01
      2.19197720e-01 2.73638964e-01 1.91977084e-01 8.08022916e-01</_>
    <_>
      8.96551758e-02 9.82758626e-02 3.96551713e-02 5.00000007e-02
      8.96551758e-02 7.58620724e-02 5.17241377e-03 8.44827592e-02
      8.62068981e-02 6.55172393e-02 3.44827585e-03 8.10344815e-02
      6.55172393e-02 2.75862068e-02 8.96551758e-02 4.82758619e-02
      2.77586222e-01 2.55172431e-01 2.36206889e-01 2.31034487e-01
      3.31034482e-01 2.67241359e-01 1.37931034e-01 2.63793111e-01
      2.17241377e-01 1.86206892e-01 3.53448302e-01 1.79310352e-01
      2.44827583e-01 2.22413793e-01 1.50000006e-01 8.50000024e-01</_>
    <_>
      9.43738669e-02 1.08892925e-01 3.26678753e-02 6.17059879e-02
      9.80036333e-02 8.34845752e-02 0. 7.62250423e-02 9.07441005e-02
      7.62250423e-02 1.45190563e-02 8.34845752e-02 6.17059879e-02
      1.45190563e-02 7.25952834e-02 3.08529940e-02 2.97640651e-01
      2.57713258e-01 2.64972776e-01 1.79673314e-01 3.44827592e-01
      2.83121616e-01 1.19782217e-01 2.52268612e-01 2.23230481e-01
      1.99637026e-01 3.84755015e-01 1.70598909e-01 2.43194193e-01
      2.01451913e-01 1.74228668e-01 8.25771332e-01</_>
    <_>
      9.87261161e-02 1.14649683e-01 4.45859879e-02 6.05095550e-02
      6.52866215e-02 7.96178356e-02 0. 7.32484087e-02 7.96178356e-02
      7.48407617e-02 3.18471342e-03 7.80254751e-02 6.84713349e-02
      1.59235671e-02 9.87261161e-02 4.45859879e-02 3.18471372e-01
      2.18152881e-01 2.35668793e-01 2.27707013e-01 3.12101901e-01
      2.85031825e-01 1.46496817e-01 2.56369412e-01 2.26114646e-01
      2.03821659e-01 3.58280271e-01 1.78343952e-01 2.38853484e-01
      2.24522293e-01 1.57643318e-01 8.42356682e-01</_>
    <_>
      9.75999981e-02 1.16800003e-01 5.92000000e-02 6.08000010e-02
      7.19999969e-02 7.84000009e-02 0. 7.36000016e-02 6.40000030e-02
      7.84000009e-02 2.08000001e-02 7.84000009e-02 5.27999997e-02
      2.08000001e-02 9.44000036e-02 3.20000015e-02 3.34399998e-01
      2.24000007e-01 2.41599992e-01 2.00000018e-01 2.86399990e-01
      2.94399977e-01 1.74400002e-01 2.44800016e-01 2.28799999e-01
      1.92000002e-01 3.64799976e-01 1.93599999e-01 2.15999991e-01
      2.25600004e-01 1.77599996e-01 8.22399974e-01</_>
    <_>
      5.56438789e-02 1.11287758e-01 1.06518283e-01 5.72337061e-02
      6.35930076e-02 6.67726547e-02 0. 7.15421289e-02 6.83624819e-02
      6.83624819e-02 0. 6.99523017e-02 5.40540554e-02 3.65659781e-02
      1.12877585e-01 5.72337061e-02 3.30683589e-01 2.01907799e-01
      2.06677258e-01 2.60731339e-01 2.41653413e-01 2.82988876e-01
      2.19395876e-01 2.55961835e-01 1.79650247e-01 1.79650247e-01
      2.97297299e-01 2.35294119e-01 2.27344990e-01 2.40063593e-01
      1.35135144e-01 8.64864826e-01</_>
    <_>
      4.56490740e-02 9.98573452e-02 9.98573452e-02 5.56348078e-02
      7.41797462e-02 7.56062791e-02 1.42653356e-03 7.98858777e-02
      7.70328119e-02 7.27532133e-02 1.42653356e-03 7.56062791e-02
      4.56490740e-02 4.27960046e-02 9.98573452e-02 5.27817421e-02
      3.00998569e-01 2.31098443e-01 2.26818830e-01 2.41084173e-01
      2.42510706e-01 2.91012853e-01 2.02567756e-01 2.63908684e-01
      1.75463632e-01 1.75463617e-01 2.95292437e-01 2.36804575e-01
      2.38231108e-01 2.29671910e-01 1.51212558e-01 8.48787427e-01</_>
    <_>
      5.21861762e-02 1.07193232e-01 1.12834975e-01 5.07757403e-02
      6.62905499e-02 6.62905499e-02 1.41043728e-03 7.47531727e-02
      6.77009895e-02 6.48801103e-02 1.41043728e-03 6.77009895e-02
      5.92383631e-02 3.80818062e-02 1.10014103e-01 5.92383631e-02
      3.22990119e-01 2.08744705e-01 2.01692522e-01 2.66572654e-01
      2.45416075e-01 2.76445687e-01 2.25669950e-01 2.52468288e-01
      1.79125533e-01 1.76304653e-01 2.91960508e-01 2.39774317e-01
      2.29901269e-01 2.38363892e-01 1.33991539e-01 8.66008461e-01</_>
    <_>
      4.66472320e-02 1.03498541e-01 1.04956269e-01 5.39358594e-02
      7.87172019e-02 7.14285746e-02 1.45772600e-03 7.28862956e-02
      7.87172019e-02 6.70553967e-02 4.37317789e-03 7.87172019e-02
      5.83090372e-02 3.93586010e-02 1.00583091e-01 3.93586010e-02
      3.09037894e-01 2.24489778e-01 2.28862986e-01 2.37609327e-01
      2.62390673e-01 2.81341136e-01 2.11370260e-01 2.44897962e-01
      1.61807582e-01 1.80758014e-01 3.00291538e-01 2.33236134e-01
      2.43440241e-01 2.23032072e-01 1.44314870e-01 8.55685174e-01</_>
    <_>
      4.00400385e-02 7.40740746e-02 7.00700730e-02 3.70370373e-02
      8.80880877e-02 6.40640631e-02 7.00700730e-02 8.50850865e-02
      8.80880877e-02 5.20520508e-02 6.00600615e-02 8.00800771e-02
      3.80380377e-02 3.40340324e-02 7.50750750e-02 4.40440439e-02
      2.21221238e-01 3.07307303e-01 2.80280292e-01 1.91191196e-01
      2.54254252e-01 2.24224225e-01 2.75275290e-01 2.46246248e-01
      2.08208203e-01 1.97197199e-01 2.66266257e-01 2.62262285e-01
      2.12212220e-01 2.59259254e-01 2.46246248e-01 7.53753722e-01</_>
    <_>
      6.61040768e-02 9.56399441e-02 6.75105453e-02 1.82841066e-02
      7.45428950e-02 5.34458496e-02 8.43881890e-02 8.57946575e-02
      8.43881890e-02 4.78199720e-02 5.20393811e-02 8.15752447e-02
      1.96905769e-02 1.12517579e-02 9.28270072e-02 6.46976084e-02
      2.47538686e-01 2.98171580e-01 2.65822798e-01 1.88466951e-01
      2.44725734e-01 2.08157524e-01 2.96765149e-01 2.50351608e-01
      2.36286923e-01 1.70182839e-01 2.89732784e-01 2.55977511e-01
      1.63150504e-01 2.91139245e-01 2.37693399e-01 7.62306631e-01</_>
    <_>
      4.71204184e-02 1.22164048e-01 1.11692846e-01 5.58464229e-02
      7.50436336e-02 6.98080286e-02 1.74520072e-03 6.28272220e-02
      6.63176253e-02 6.45724237e-02 1.74520072e-03 6.45724237e-02
      5.58464229e-02 2.96684112e-02 1.20418847e-01 5.06108217e-02
      3.36823732e-01 2.09424078e-01 1.97207659e-01 2.56544501e-01
      2.44328111e-01 2.86212921e-01 2.35602096e-01 2.33856902e-01
      1.69284463e-01 1.78010464e-01 3.14136118e-01 2.32111692e-01
      2.16404870e-01 2.37347290e-01 1.37870848e-01 8.62129152e-01</_>
    <_>
      5.67823350e-02 1.11987382e-01 9.77917984e-02 5.20504750e-02
      7.09779188e-02 6.94006309e-02 0. 7.41324946e-02 7.25552067e-02
      7.09779188e-02 0. 7.09779188e-02 5.52050471e-02 3.15457396e-02
      1.10410094e-01 5.52050471e-02 3.18611979e-01 2.14511037e-01
      2.14511037e-01 2.52365947e-01 2.55520523e-01 2.83911675e-01
      2.08201885e-01 2.52365947e-01 1.81388021e-01 1.78233445e-01
      3.09148282e-01 2.23974764e-01 2.30283916e-01 2.36593068e-01
      1.40378550e-01 8.59621465e-01</_>
    <_>
      5.54272532e-02 8.08314085e-02 8.19861442e-02 4.84988466e-02
      8.77598152e-02 5.31177819e-02 5.42725176e-02 8.42956156e-02
      8.42956156e-02 4.61893752e-02 4.50346433e-02 8.77598152e-02
      5.77367209e-02 8.08314048e-03 7.85219371e-02 4.61893752e-02
      2.66743660e-01 2.79445738e-01 2.63279468e-01 1.90531164e-01
      2.85219401e-01 1.88221693e-01 2.59815246e-01 2.66743660e-01
      1.99769050e-01 2.06697464e-01 2.77136266e-01 2.69053131e-01
      1.96304858e-01 2.57505774e-01 1.98614329e-01 8.01385701e-01</_>
    <_>
      5.69259971e-02 1.13851994e-01 1.02466792e-01 5.31309284e-02
      7.21062645e-02 6.26185983e-02 0. 6.64136633e-02 7.96963945e-02
      7.02087283e-02 7.59013277e-03 7.21062645e-02 3.98481973e-02
      3.41555960e-02 1.21442124e-01 4.74383309e-02 3.26375723e-01
      2.01138526e-01 2.29601502e-01 2.42884248e-01 2.48576835e-01
      2.80834913e-01 2.31499046e-01 2.39089191e-01 1.74573064e-01
      1.63187847e-01 3.05502832e-01 2.22011387e-01 2.23908901e-01
      2.48576850e-01 1.40417457e-01 8.59582603e-01</_>
    <_>
      8.49858373e-02 0. 0. 0. 1.13314450e-01 0. 1.41643062e-02
      9.06515568e-02 1.21813029e-01 7.08215311e-02 1.81303114e-01
      5.38243614e-02 1.30311608e-01 1.33144483e-01 5.66572230e-03 0.
      8.49858373e-02 2.18130305e-01 4.27762032e-01 2.69121826e-01
      4.50424910e-01 2.03966022e-01 2.01133132e-01 1.44475922e-01
      2.66288936e-01 2.15297446e-01 1.98300287e-01 1.04815863e-01
      4.56090629e-01 2.40793198e-01 2.66288936e-01 7.33711064e-01</_>
    <_>
      1.31188124e-01 2.97029708e-02 0. 3.46534662e-02 1.13861389e-01
      2.47524749e-03 1.06435642e-01 1.08910888e-01 1.08910888e-01
      1.28712878e-01 7.17821792e-02 0. 1.33663371e-01 2.97029708e-02 0.
      0. 1.95544571e-01 3.31683159e-01 3.09405953e-01 1.63366348e-01
      4.87623751e-01 1.90594077e-01 1.78217828e-01 1.43564358e-01
      2.05445558e-01 4.03465331e-01 2.77227759e-01 2.50000000e-01
      4.00990099e-01 7.17821792e-02 3.09405953e-01 6.90594077e-01</_>
    <_>
      1.39165014e-01 2.58449297e-02 0. 5.96421473e-02 1.09343939e-01
      9.94035788e-03 1.13320082e-01 8.34990069e-02 1.19284295e-01
      1.35188863e-01 6.16302192e-02 0. 1.21272363e-01 2.18687877e-02 0.
      0. 2.24652097e-01 3.16103399e-01 3.16103369e-01 1.43141150e-01
      4.89065617e-01 1.92842931e-01 1.74950302e-01 1.43141150e-01
      2.10735589e-01 4.29423451e-01 2.84294248e-01 2.56461233e-01
      3.97614300e-01 6.16302192e-02 3.20079535e-01 6.79920495e-01</_>
    <_>
      1.17903933e-01 0. 2.18340615e-03 8.29694346e-02 9.82532725e-02
      1.09170303e-02 1.26637548e-01 7.64192119e-02 1.22270741e-01
      1.50655016e-01 4.80349362e-02 0. 1.39737993e-01 2.40174681e-02 0.
      0. 2.03056782e-01 3.12227070e-01 3.20960701e-01 1.63755462e-01
      4.78165925e-01 1.85589507e-01 1.76855892e-01 1.59388646e-01
      1.76855892e-01 4.99999970e-01 2.27074236e-01 2.88209587e-01
      4.36681211e-01 4.80349362e-02 3.36244553e-01 6.63755417e-01</_>
    <_>
      1.25944585e-01 1.25944586e-02 0. 6.80100769e-02 1.00755669e-01
      5.03778318e-03 1.15869015e-01 9.06801000e-02 1.25944585e-01
      1.51133507e-01 6.04534000e-02 0. 1.23425692e-01 2.01511327e-02 0.
      0. 2.06549123e-01 3.12342554e-01 3.37531507e-01 1.43576831e-01
      4.76070523e-01 1.88916892e-01 1.76322415e-01 1.58690184e-01
      1.91435769e-01 4.58438307e-01 2.44332492e-01 2.74559200e-01
      4.20654923e-01 6.04534000e-02 3.32493722e-01 6.67506337e-01</_>
    <_>
      1.49532706e-01 2.99065430e-02 1.86915894e-03 9.15887877e-02
      9.53271016e-02 5.60747646e-03 1.25233650e-01 5.79439253e-02
      1.12149529e-01 1.30841121e-01 4.11214940e-02 0. 1.32710278e-01
      2.61682235e-02 0. 0. 2.72897184e-01 2.84112155e-01 2.84112126e-01
      1.58878505e-01 4.89719629e-01 1.92523360e-01 1.68224305e-01
      1.49532706e-01 1.96261674e-01 4.80373859e-01 2.80373842e-01
      2.76635528e-01 4.01869148e-01 4.11214940e-02 3.02803725e-01
      6.97196245e-01</_>
    <_>
      1.29589632e-01 3.02375816e-02 0. 5.61555065e-02 1.18790500e-01
      2.15982716e-03 1.12311013e-01 9.93520543e-02 9.50323939e-02
      1.33909285e-01 6.47948161e-02 0. 1.27429798e-01 3.02375816e-02 0.
      0. 2.15982720e-01 3.32613409e-01 2.93736488e-01 1.57667384e-01
      4.70842302e-01 1.96544275e-01 1.77105829e-01 1.55507565e-01
      1.96544290e-01 4.29805577e-01 2.80777544e-01 2.67818570e-01
      3.86609048e-01 6.47948161e-02 3.13174933e-01 6.86824977e-01</_>
    <_>
      5.10638282e-02 7.23404288e-02 1.07801415e-01 5.67375869e-02
      7.09219873e-02 7.37588629e-02 1.41843967e-03 6.52482286e-02
      7.37588629e-02 8.08510631e-02 2.83687934e-03 6.80851042e-02
      4.68085110e-02 6.52482286e-02 1.03546098e-01 5.95744699e-02
      2.87943244e-01 2.11347520e-01 2.25531906e-01 2.75177300e-01
      2.42553189e-01 2.92198598e-01 2.15602830e-01 2.49645397e-01
      1.87234044e-01 1.85815603e-01 2.68085122e-01 2.31205672e-01
      2.66666651e-01 2.34042555e-01 1.58865243e-01 8.41134727e-01</_>
    <_>
      2.70270277e-02 5.01930490e-02 1.11969113e-01 4.24710438e-02
      8.30115825e-02 1.19691119e-01 7.72200758e-03 6.17760606e-02
      8.30115825e-02 1.11969113e-01 1.93050187e-02 6.75675645e-02
      3.47490348e-02 5.40540554e-02 9.65250954e-02 2.89575290e-02
      2.31660247e-01 2.72200763e-01 2.81853288e-01 2.14285716e-01
      2.27799222e-01 3.35907340e-01 2.35521227e-01 2.00772211e-01
      1.94980696e-01 1.96911201e-01 2.79922783e-01 2.23938227e-01
      2.83783793e-01 2.12355211e-01 2.58687258e-01 7.41312802e-01</_>
    <_>
      4.34782617e-02 1.07023410e-01 7.69230798e-02 4.01337780e-02
      8.69565234e-02 3.34448144e-02 5.01672253e-02 5.68561889e-02
      8.02675560e-02 3.34448144e-02 5.01672253e-02 5.68561889e-02
      3.51170562e-02 9.53177288e-02 1.00334451e-01 5.35117052e-02
      2.67558515e-01 2.27424741e-01 2.20735788e-01 2.84280926e-01
      2.45819390e-01 2.69230753e-01 2.77592003e-01 2.07357869e-01
      1.80602014e-01 1.58862874e-01 2.70903021e-01 2.24080265e-01
      2.44147152e-01 2.60869563e-01 1.67224079e-01 8.32775891e-01</_>
    <_>
      3.82352956e-02 6.02941178e-02 1.07352942e-01 6.32352978e-02
      7.64705911e-02 8.67647082e-02 5.88235306e-03 6.32352978e-02
      7.05882385e-02 7.35294148e-02 5.88235306e-03 6.61764741e-02
      5.44117652e-02 6.02941178e-02 1.08823530e-01 5.88235296e-02
      2.69117653e-01 2.32352957e-01 2.16176480e-01 2.82352954e-01
      2.39705890e-01 2.80882359e-01 2.27941185e-01 2.51470596e-01
      1.89705878e-01 1.97058827e-01 2.61764705e-01 2.39705890e-01
      2.58823544e-01 2.39705890e-01 1.72058821e-01 8.27941179e-01</_>
    <_>
      4.76190485e-02 6.53061196e-02 9.65986401e-02 5.44217676e-02
      8.02721083e-02 8.16326514e-02 8.16326495e-03 7.21088424e-02
      8.02721083e-02 9.38775539e-02 8.16326495e-03 7.48299286e-02
      3.67346928e-02 5.44217676e-02 9.38775539e-02 5.17006814e-02
      2.63945580e-01 2.42176861e-01 2.57142842e-01 2.36734688e-01
      2.44897962e-01 2.95238078e-01 2.06802726e-01 2.53061235e-01
      1.89115644e-01 1.93197280e-01 2.74829924e-01 2.31292516e-01
      2.65306115e-01 2.28571430e-01 1.91836730e-01 8.08163285e-01</_>
    <_>
      3.68421040e-02 6.84210509e-02 3.94736826e-02 1.84210520e-02
      9.34210494e-02 5.39473668e-02 7.89473653e-02 8.94736871e-02
      8.81578922e-02 6.71052635e-02 6.05263151e-02 8.15789476e-02
      2.10526325e-02 6.05263151e-02 8.42105299e-02 5.78947365e-02
      1.63157895e-01 3.15789461e-01 2.97368407e-01 2.23684222e-01
      2.39473671e-01 2.50000000e-01 2.63157904e-01 2.47368425e-01
      2.09210515e-01 1.85526311e-01 2.52631575e-01 2.26315796e-01
      2.36842096e-01 2.84210533e-01 2.60526299e-01 7.39473701e-01</_>
    <_>
      4.57516350e-02 6.01307191e-02 1.04575165e-01 5.09803928e-02
      7.58169964e-02 7.71241859e-02 9.15032718e-03 7.05882385e-02
      7.71241859e-02 7.84313753e-02 5.22875832e-03 7.05882385e-02
      4.96732034e-02 6.40522912e-02 1.04575165e-01 5.62091507e-02
      2.61437923e-01 2.32679754e-01 2.31372565e-01 2.74509817e-01
      2.48366028e-01 2.79738575e-01 2.23529413e-01 2.48366028e-01
      1.84313729e-01 1.88235298e-01 2.58823544e-01 2.35294133e-01
      2.69281060e-01 2.36601308e-01 1.69934645e-01 8.30065370e-01</_>
    <_>
      5.21091819e-02 7.19603002e-02 1.07940450e-01 5.21091819e-02
      7.32009932e-02 7.07195997e-02 7.44416891e-03 6.69975206e-02
      7.44416863e-02 7.81637728e-02 6.20347401e-03 6.82382137e-02
      4.34243195e-02 6.20347410e-02 1.07940450e-01 5.70719615e-02
      2.84119129e-01 2.18362302e-01 2.27047145e-01 2.70471483e-01
      2.43176192e-01 2.82878399e-01 2.29528546e-01 2.44416863e-01
      1.86104208e-01 1.81141451e-01 2.67990083e-01 2.34491318e-01
      2.58064508e-01 2.39454091e-01 1.62531018e-01 8.37468982e-01</_>
    <_>
      3.93325388e-02 7.15137050e-02 7.15137050e-02 4.76758033e-02
      7.27056041e-02 4.64839078e-02 5.84028624e-02 7.62812868e-02
      8.10488686e-02 4.64839078e-02 4.64839078e-02 7.27056041e-02
      4.64839078e-02 8.82002413e-02 9.05840322e-02 4.41001207e-02
      2.30035752e-01 2.53873676e-01 2.46722281e-01 2.69368291e-01
      2.39570916e-01 2.52681762e-01 2.66984493e-01 2.40762815e-01
      1.76400468e-01 1.99046478e-01 2.30035752e-01 2.53873646e-01
      2.62216926e-01 2.53873646e-01 1.97854578e-01 8.02145422e-01</_>
    <_>
      3.41753326e-02 4.75482903e-02 1.04011886e-01 4.60624062e-02
      8.02377388e-02 8.91530439e-02 8.91530421e-03 7.13224337e-02
      8.32095072e-02 8.91530439e-02 8.91530421e-03 6.98365495e-02
      4.45765220e-02 6.24071322e-02 1.12927191e-01 4.75482903e-02
      2.31797919e-01 2.49628514e-01 2.51114398e-01 2.67459124e-01
      2.42199093e-01 2.88261503e-01 2.34769687e-01 2.34769672e-01
      1.79791972e-01 1.88707277e-01 2.51114398e-01 2.30312020e-01
      2.79346198e-01 2.39227340e-01 1.96136698e-01 8.03863287e-01</_>
    <_>
      3.88726927e-02 7.19144791e-02 2.81827021e-02 3.49854231e-02
      8.16326514e-02 6.51117563e-02 5.24781346e-02 8.26044679e-02
      8.55199248e-02 6.51117563e-02 5.63654043e-02 8.74635577e-02
      4.56754118e-02 7.77453855e-02 7.77453855e-02 4.85908650e-02
      1.73955292e-01 2.81827003e-01 2.94460654e-01 2.49757051e-01
      2.51700699e-01 2.79883385e-01 2.14771628e-01 2.53644317e-01
      2.08940715e-01 1.98250726e-01 2.57531583e-01 1.98250726e-01
      2.74052471e-01 2.70165205e-01 2.39067048e-01 7.60932863e-01</_>
    <_>
      5.22496365e-02 1.13207549e-01 1.88679248e-02 6.53120428e-02
      7.40203187e-02 5.80551522e-03 5.37010171e-02 6.96661845e-02
      7.40203187e-02 5.80551522e-03 5.95065318e-02 7.54716992e-02
      5.51523939e-02 1.16110303e-01 1.16110303e-01 4.49927449e-02
      2.49637157e-01 2.03193039e-01 2.14804068e-01 3.32365751e-01
      2.55442649e-01 2.40928888e-01 2.48185784e-01 2.55442679e-01
      1.62554428e-01 1.79970965e-01 2.45283037e-01 2.07547158e-01
      2.51088530e-01 2.96081275e-01 1.24818578e-01 8.75181496e-01</_>
    <_>
      3.41614895e-02 9.16149095e-02 3.88198756e-02 5.59006222e-02
      8.54037255e-02 1.55279506e-02 6.83229789e-02 8.54037255e-02
      9.00621116e-02 1.24223605e-02 7.45341629e-02 8.38509351e-02
      4.81366478e-02 1.00931674e-01 8.69565234e-02 2.79503111e-02
      2.20496893e-01 2.54658401e-01 2.60869563e-01 2.63975173e-01
      2.57763982e-01 2.20496893e-01 2.68633544e-01 2.53105581e-01
      1.52173921e-01 1.84782624e-01 2.26708069e-01 2.48447195e-01
      2.51552790e-01 2.73291945e-01 1.70807451e-01 8.29192519e-01</_>
    <_>
      3.63391638e-02 7.80619085e-02 1.74966361e-02 4.71063256e-02
      7.94078037e-02 5.65275922e-02 4.30686399e-02 8.61372799e-02
      9.01749656e-02 4.84522209e-02 4.57604304e-02 8.61372799e-02
      4.44145352e-02 1.04979813e-01 8.88290703e-02 4.71063256e-02
      1.79004028e-01 2.65141308e-01 2.70524919e-01 2.85329759e-01
      2.50336468e-01 2.88021535e-01 1.95154786e-01 2.66487211e-01
      1.85733512e-01 1.83041722e-01 2.50336468e-01 1.93808883e-01
      2.88021535e-01 2.67833114e-01 1.93808883e-01 8.06191146e-01</_>
    <_>
      4.55840454e-02 7.50237405e-02 3.70370373e-02 4.17853743e-02
      8.26210827e-02 6.26780614e-02 5.22317179e-02 8.07217509e-02
      8.45204145e-02 6.17283955e-02 6.07787259e-02 8.07217509e-02
      4.46343794e-02 6.74263984e-02 7.59734064e-02 4.65337150e-02
      1.99430197e-01 2.78252602e-01 2.87749290e-01 2.34567896e-01
      2.57359922e-01 2.66856611e-01 2.26020887e-01 2.49762595e-01
      2.15574548e-01 2.00379848e-01 2.65906930e-01 2.11775884e-01
      2.58309603e-01 2.64007598e-01 2.37416908e-01 7.62583017e-01</_>
    <_>
      4.04217914e-02 1.03690684e-01 3.86643223e-02 4.39367294e-02
      8.43585208e-02 3.51493852e-03 7.02987686e-02 6.32688925e-02
      8.08435827e-02 3.51493852e-03 8.78734589e-02 7.73286447e-02
      4.04217914e-02 1.07205622e-01 1.15992971e-01 3.86643223e-02
      2.26713523e-01 2.21441120e-01 2.49560624e-01 3.02284688e-01
      2.46045679e-01 2.17926174e-01 3.12829524e-01 2.23198593e-01
      1.70474514e-01 1.58172220e-01 2.31985927e-01 2.16168731e-01
      2.31985927e-01 3.19859385e-01 1.65202111e-01 8.34797859e-01</_>
    <_>
      4.25138623e-02 1.21996306e-01 2.21811458e-02 4.99075800e-02
      7.20887259e-02 3.69685772e-03 5.54528646e-02 7.20887259e-02
      7.39371553e-02 0. 5.54528646e-02 6.65434375e-02 6.28465787e-02
      1.14602588e-01 1.29390016e-01 5.73012941e-02 2.36598894e-01
      2.03327179e-01 1.95933461e-01 3.64140451e-01 2.51386315e-01
      2.40295738e-01 2.62476891e-01 2.45841041e-01 1.58964887e-01
      1.68207020e-01 2.40295738e-01 1.99630320e-01 2.51386315e-01
      3.08687598e-01 1.14602588e-01 8.85397375e-01</_>
    <_>
      6.27009645e-02 1.10932477e-01 1.28617361e-02 6.27009645e-02
      7.39549845e-02 1.60771701e-03 6.59163967e-02 6.59163967e-02
      7.55627006e-02 1.60771701e-02 8.36012885e-02 7.23472685e-02
      4.98392284e-02 1.04501605e-01 9.64630246e-02 4.50160764e-02
      2.49196142e-01 2.07395494e-01 2.47588426e-01 2.95819938e-01
      2.62057900e-01 2.33118966e-01 2.58842438e-01 2.45980710e-01
      1.92926049e-01 1.94533765e-01 2.49196142e-01 2.07395494e-01
      2.45980710e-01 2.97427654e-01 1.67202562e-01 8.32797348e-01</_>
    <_>
      5.83090372e-02 1.15160353e-01 3.79008763e-02 5.83090372e-02
      7.14285746e-02 4.37317789e-03 6.55976683e-02 7.14285746e-02
      6.41399398e-02 1.45772600e-03 6.70553967e-02 6.70553967e-02
      5.68513125e-02 9.91253629e-02 1.10787176e-01 5.10204099e-02
      2.69679308e-01 2.12827981e-01 1.99708462e-01 3.17784280e-01
      2.50728846e-01 2.20116615e-01 2.81341136e-01 2.47813433e-01
      1.80758029e-01 1.82215735e-01 2.49271140e-01 2.33236164e-01
      2.21574336e-01 2.95918375e-01 1.38483971e-01 8.61515999e-01</_>
    <_>
      0. 0. 4.39932309e-02 9.30626094e-02 7.78341815e-02 1.31979689e-01
      1.18443318e-01 2.36886628e-02 9.13705602e-02 1.42131984e-01
      1.15059219e-01 3.04568522e-02 0. 0. 4.39932309e-02 8.79864618e-02
      1.37055844e-01 3.51945847e-01 3.79018605e-01 1.31979689e-01
      1.69204742e-01 2.74111688e-01 3.21489006e-01 2.35194594e-01
      3.35025370e-01 3.53637904e-01 2.09813863e-01 2.79187828e-01
      2.33502537e-01 2.77495772e-01 5.07614195e-01 4.92385805e-01</_>
    <_>
      0. 0. 2.86225397e-02 9.66010764e-02 6.44007176e-02 1.25223607e-01
      1.39534891e-01 2.14669053e-02 9.48121622e-02 1.48479432e-01
      1.25223607e-01 2.50447225e-02 0. 0. 3.75670828e-02 9.30232555e-02
      1.25223622e-01 3.50626111e-01 3.93559903e-01 1.30590335e-01
      1.59212887e-01 2.73703039e-01 3.30948114e-01 2.36135960e-01
      3.43470454e-01 3.84615391e-01 1.89624324e-01 2.86225438e-01
      2.43291587e-01 2.80858666e-01 5.38461566e-01 4.61538434e-01</_>
    <_>
      0. 3.18979262e-03 5.42264767e-02 1.05263159e-01 9.56937820e-02
      1.13237642e-01 1.06858052e-01 4.78468882e-03 1.24401912e-01
      9.72886756e-02 9.72886756e-02 4.78468882e-03 0. 1.59489624e-02
      6.85805455e-02 1.08452953e-01 1.62679434e-01 3.20574164e-01
      3.23763967e-01 1.92982465e-01 2.20095694e-01 2.29665086e-01
      3.26953739e-01 2.23285496e-01 3.18979263e-01 3.09409887e-01
      2.12121218e-01 2.71132380e-01 2.37639561e-01 2.79106855e-01
      4.14673030e-01 5.85326970e-01</_>
    <_>
      0. 2.78551527e-03 3.89972143e-02 8.91364887e-02 7.66016692e-02
      1.22562677e-01 1.14206128e-01 4.59610038e-02 9.05292481e-02
      1.26740947e-01 1.07242338e-01 2.78551541e-02 0. 8.35654605e-03
      5.29247895e-02 9.61002782e-02 1.30919218e-01 3.59331459e-01
      3.52367699e-01 1.57381609e-01 1.67130917e-01 2.60445684e-01
      3.13370466e-01 2.59052932e-01 3.25905293e-01 3.30083549e-01
      2.01949865e-01 2.88300812e-01 2.25626737e-01 2.84122556e-01
      4.70752120e-01 5.29247880e-01</_>
    <_>
      0. 3.18471342e-03 5.41401282e-02 1.05095543e-01 9.55414027e-02
      1.13057323e-01 1.06687896e-01 4.77707013e-03 1.24203824e-01
      9.71337557e-02 9.71337557e-02 4.77707013e-03 0. 1.59235671e-02
      7.00636953e-02 1.08280256e-01 1.62420392e-01 3.20063710e-01
      3.23248416e-01 1.94267511e-01 2.19745219e-01 2.29299366e-01
      3.28025460e-01 2.22929940e-01 3.18471313e-01 3.08917195e-01
      2.11783439e-01 2.70700634e-01 2.37261146e-01 2.80254781e-01
      4.14012730e-01 5.85987270e-01</_>
    <_>
      0. 1.65562914e-03 3.97351012e-02 9.43708643e-02 6.45695329e-02
      1.24172188e-01 1.20860927e-01 2.48344373e-02 9.93377492e-02
      1.40728474e-01 1.12582780e-01 3.47682126e-02 0. 6.62251655e-03
      4.47019860e-02 9.10596028e-02 1.35761589e-01 3.34437072e-01
      3.87417227e-01 1.42384112e-01 1.63907290e-01 2.73178816e-01
      3.17880809e-01 2.45033115e-01 3.27814579e-01 3.55960250e-01
      1.90397352e-01 2.79801309e-01 2.46688753e-01 2.83112586e-01
      4.98344362e-01 5.01655638e-01</_>
    <_>
      0. 0. 3.98009941e-02 8.95522386e-02 8.95522386e-02 1.64179102e-01
      1.24378107e-01 2.98507456e-02 4.47761193e-02 1.26865670e-01
      1.39303476e-01 8.70646760e-02 0. 0. 9.95024852e-03 5.47263697e-02
      1.29353225e-01 4.07960206e-01 3.98009956e-01 6.46766201e-02
      1.34328365e-01 2.91044772e-01 3.13432842e-01 2.61194021e-01
      3.58208954e-01 3.40795994e-01 2.53731340e-01 2.83582091e-01
      1.71641797e-01 2.91044772e-01 5.54726362e-01 4.45273638e-01</_>
    <_>
      9.05511826e-02 9.25196856e-02 9.84251946e-02 9.84251946e-02
      6.79133832e-02 3.54330726e-02 2.85433065e-02 5.21653555e-02
      5.90551198e-02 3.05118114e-02 3.83858271e-02 5.21653555e-02
      4.82283458e-02 7.18503967e-02 7.18503967e-02 6.39763772e-02
      3.79921257e-01 1.84055120e-01 1.80118114e-01 2.55905509e-01
      2.65748024e-01 2.30314970e-01 2.37204731e-01 2.66732275e-01
      2.28346452e-01 2.05708653e-01 2.86417335e-01 2.77559042e-01
      2.09645659e-01 2.26377964e-01 1.32874012e-01 8.67125988e-01</_>
    <_>
      5.25700934e-02 4.43925224e-02 4.67289723e-02 5.14018685e-02
      8.17757025e-02 6.30841106e-02 7.00934604e-02 7.94392526e-02
      7.47663528e-02 3.73831764e-02 4.32242975e-02 7.12616816e-02
      5.02336435e-02 8.76168236e-02 9.34579447e-02 5.25700934e-02
      1.95093453e-01 2.94392526e-01 2.26635516e-01 2.83878505e-01
      2.59345800e-01 2.32476652e-01 2.53504664e-01 2.54672915e-01
      2.11448595e-01 2.09112152e-01 2.41822436e-01 2.47663558e-01
      2.50000000e-01 2.60514021e-01 2.13785052e-01 7.86214948e-01</_>
    <_>
      5.22875823e-02 7.84313753e-02 1.30718961e-01 7.84313753e-02
      6.53594807e-02 4.35729846e-02 2.17864923e-02 6.53594807e-02
      6.53594807e-02 5.66448793e-02 2.83224396e-02 6.53594807e-02
      4.57516350e-02 8.49673226e-02 9.80392173e-02 1.96078438e-02
      3.39869291e-01 1.96078449e-01 2.15686291e-01 2.48366028e-01
      2.28758186e-01 2.63616562e-01 2.78867126e-01 2.28758186e-01
      1.43790856e-01 2.02614367e-01 2.39651442e-01 2.96296328e-01
      2.52723306e-01 2.11328983e-01 1.50326788e-01 8.49673212e-01</_>
    <_>
      7.71241859e-02 6.53594807e-02 5.88235296e-02 6.40522912e-02
      6.27451017e-02 4.96732034e-02 5.75163402e-02 7.97385648e-02
      5.49019612e-02 2.74509806e-02 2.61437912e-02 6.01307191e-02
      6.27451017e-02 9.28104594e-02 9.15032700e-02 6.92810491e-02
      2.65359491e-01 2.49673218e-01 1.68627456e-01 3.16339880e-01
      2.57516354e-01 2.35294133e-01 2.33986944e-01 2.73202628e-01
      2.22222239e-01 2.11764723e-01 2.54901975e-01 2.60130733e-01
      2.37908512e-01 2.47058839e-01 1.60784319e-01 8.39215696e-01</_>
    <_>
      4.86956537e-02 1.32173911e-01 1.30434781e-01 4.17391323e-02
      1.13043480e-01 2.95652170e-02 2.26086956e-02 1.07826084e-01
      1.11304350e-01 6.95652189e-03 1.39130438e-02 1.09565221e-01
      4.52173911e-02 1.91304348e-02 3.47826071e-02 3.30434777e-02
      3.53043467e-01 2.73043483e-01 2.41739154e-01 1.32173911e-01
      3.18260878e-01 1.87826082e-01 2.01739132e-01 2.92173922e-01
      1.25217393e-01 1.16521746e-01 3.23478252e-01 3.02608699e-01
      1.82608709e-01 1.91304341e-01 7.30434805e-02 9.26956475e-01</_>
    <_>
      6.54911846e-02 1.00755669e-01 1.00755669e-01 6.42317384e-02
      1.04534008e-01 2.89672539e-02 2.64483634e-02 1.04534008e-01
      1.04534008e-01 1.38539039e-02 1.25944586e-02 1.00755669e-01
      6.29722923e-02 3.02267000e-02 3.27455923e-02 4.65994962e-02
      3.31234276e-01 2.64483631e-01 2.31738031e-01 1.72544077e-01
      3.37531507e-01 1.73803538e-01 1.72544092e-01 3.16120923e-01
      1.53652400e-01 1.67506292e-01 2.99748123e-01 2.95969784e-01
      2.11586893e-01 1.92695215e-01 8.18639845e-02 9.18136120e-01</_>
    <_>
      4.90196086e-02 8.71459693e-02 8.71459693e-02 5.33769056e-02
      9.36819166e-02 5.77342063e-02 4.46623079e-02 9.80392173e-02
      9.25925896e-02 2.28758175e-02 2.28758175e-02 9.36819166e-02
      5.77342063e-02 4.24836613e-02 4.90196086e-02 4.79302816e-02
      2.76688457e-01 2.94117659e-01 2.32026145e-01 1.97167754e-01
      2.93028295e-01 2.10239649e-01 2.03703701e-01 2.93028325e-01
      1.77559912e-01 1.78649232e-01 2.87581682e-01 2.83224404e-01
      2.15686262e-01 2.13507622e-01 1.48148149e-01 8.51851940e-01</_>
    <_>
      6.78294599e-02 8.52713212e-02 9.68992263e-02 6.58914745e-02
      9.30232555e-02 3.10077518e-02 0. 6.97674453e-02 7.17054233e-02 0.
      0. 6.78294599e-02 4.06976752e-02 1.14341088e-01 1.14341088e-01
      8.13953504e-02 3.15891474e-01 1.93798453e-01 1.39534891e-01
      3.50775212e-01 2.73255795e-01 2.30620161e-01 2.11240321e-01
      2.84883738e-01 1.80232555e-01 1.06589153e-01 2.77131796e-01
      2.32558146e-01 2.26744175e-01 2.63565898e-01 3.10077518e-02
      9.68992293e-01</_>
    <_>
      1.01226993e-01 9.81595069e-02 1.07361965e-01 1.10429451e-01
      6.13496937e-02 0. 0. 6.13496937e-02 6.44171759e-02 0. 0.
      6.59509227e-02 5.67484647e-02 1.07361965e-01 1.07361965e-01
      5.82822077e-02 4.17177916e-01 1.22699387e-01 1.30368099e-01
      3.29754591e-01 2.83742309e-01 2.05521464e-01 2.14723930e-01
      2.96012253e-01 1.59509197e-01 1.67177916e-01 2.60736197e-01
      2.79141098e-01 2.28527606e-01 2.31595099e-01 0. 1.</_>
    <_>
      9.98463929e-02 9.83102918e-02 1.07526883e-01 1.10599078e-01
      6.14439324e-02 0. 0. 6.14439324e-02 6.45161271e-02 0. 0.
      6.60522282e-02 5.68356365e-02 1.07526883e-01 1.07526883e-01
      5.83717376e-02 4.16282624e-01 1.22887865e-01 1.30568355e-01
      3.30261111e-01 2.82642066e-01 2.05837175e-01 2.15053767e-01
      2.96466976e-01 1.58218130e-01 1.67434722e-01 2.59600610e-01
      2.79569894e-01 2.28878647e-01 2.31950849e-01 0. 1.00000012e+00</_>
    <_>
      1.15340255e-01 1.10726647e-01 1.15340255e-01 1.10726647e-01
      7.15109557e-02 3.69088799e-02 2.99884658e-02 6.92041516e-02
      6.92041516e-02 3.46020758e-02 2.30680499e-02 6.92041516e-02
      6.45905435e-02 1.03806229e-02 9.22721997e-03 5.99769317e-02
      4.52133805e-01 2.07612455e-01 1.96078435e-01 1.44175321e-01
      3.20645899e-01 1.92618221e-01 1.77623987e-01 3.09111893e-01
      2.35294119e-01 2.39907727e-01 3.34486723e-01 3.25259507e-01
      1.78777397e-01 1.61476359e-01 1.24567471e-01 8.75432551e-01</_>
    <_>
      8.97435918e-02 9.61538479e-02 8.01282078e-02 6.41025677e-02
      8.49358961e-02 7.37179518e-02 4.32692319e-02 9.93589759e-02
      8.01282078e-02 6.41025677e-02 1.92307699e-02 9.61538479e-02
      4.32692319e-02 6.41025649e-03 1.60256412e-03 5.76923080e-02
      3.30128223e-01 3.01282048e-01 2.59615391e-01 1.08974360e-01
      2.98076928e-01 2.40384623e-01 1.44230768e-01 3.17307711e-01
      2.40384609e-01 2.14743599e-01 3.44551295e-01 2.86858976e-01
      1.93910271e-01 1.74679488e-01 2.00320527e-01 7.99679518e-01</_>
    <_>
      1.11922137e-01 1.24087594e-01 1.48418486e-01 1.07055962e-01
      9.73236039e-02 7.29926974e-02 2.43309010e-02 0. 9.73236039e-02
      7.29926974e-02 3.89294401e-02 0. 6.81265220e-02 2.67639905e-02
      9.73236002e-03 0. 4.91484165e-01 1.94647208e-01 2.09245741e-01
      1.04622871e-01 3.74695867e-01 2.96836972e-01 2.21411198e-01
      1.07055962e-01 2.23844260e-01 2.72506088e-01 4.06326056e-01
      2.79805362e-01 2.65206814e-01 4.86617982e-02 2.09245741e-01
      7.90754199e-01</_>
    <_>
      1.06280193e-01 1.44927531e-01 1.44927531e-01 1.11111112e-01
      9.66183543e-02 5.31400964e-02 2.65700482e-02 1.20772943e-02
      9.66183543e-02 7.24637657e-02 2.41545886e-02 0. 6.76328465e-02
      3.38164233e-02 9.66183562e-03 0. 5.07246375e-01 1.88405812e-01
      1.93236709e-01 1.11111104e-01 3.67149770e-01 3.04347843e-01
      2.05314010e-01 1.23188406e-01 1.83574870e-01 2.77777761e-01
      4.00966167e-01 2.94685990e-01 2.70531386e-01 3.38164233e-02
      1.76328495e-01 8.23671460e-01</_>
    <_>
      1.22580647e-01 1.35483876e-01 1.35483876e-01 1.33333340e-01
      8.60215053e-02 6.45161271e-02 2.15053763e-02 0. 8.60215053e-02
      6.45161271e-02 2.15053763e-02 0. 6.88172057e-02 4.73118275e-02
      1.29032256e-02 0. 5.26881695e-01 1.72043011e-01 1.72043011e-01
      1.29032254e-01 3.63440871e-01 3.11827958e-01 1.91397846e-01
      1.33333340e-01 2.08602145e-01 2.88172036e-01 4.08602148e-01
      2.90322602e-01 2.66666651e-01 3.44086029e-02 1.72043011e-01
      8.27956915e-01</_>
    <_>
      1.22621566e-01 1.33192390e-01 1.41649053e-01 1.22621566e-01
      8.66807625e-02 4.86257933e-02 2.74841432e-02 0. 8.87949243e-02
      6.34249449e-02 4.22832966e-02 0. 7.18816072e-02 2.95983087e-02
      2.11416483e-02 0. 5.20084620e-01 1.62790701e-01 1.94503158e-01
      1.22621566e-01 3.69978845e-01 2.74841428e-01 2.32558146e-01
      1.22621566e-01 2.13530660e-01 2.85412252e-01 3.91120523e-01
      2.91754752e-01 2.53699780e-01 6.34249449e-02 1.81818187e-01
      8.18181872e-01</_>
    <_>
      3.26530598e-02 1.08843535e-01 1.08843535e-01 4.08163257e-02
      8.43537450e-02 9.52380989e-03 0. 8.70748311e-02 8.70748311e-02
      1.08843539e-02 4.76190485e-02 8.57142881e-02 4.48979586e-02
      4.35374156e-02 1.27891153e-01 8.02721083e-02 2.91156471e-01
      1.80952385e-01 2.31292516e-01 2.96598643e-01 2.48979598e-01
      1.72789127e-01 2.84353733e-01 2.93877542e-01 1.70068026e-01
      9.65986401e-02 2.35374153e-01 2.36734688e-01 1.86394542e-01
      3.41496617e-01 6.80272132e-02 9.31972742e-01</_>
    <_>
      5.68603203e-02 7.41656348e-02 8.65265727e-02 7.29295462e-02
      4.20271941e-02 7.66378269e-02 6.67490736e-02 1.97775029e-02
      1.48331271e-02 6.55129775e-02 7.16934502e-02 3.21384408e-02
      8.89987648e-02 9.14709494e-02 8.15822035e-02 5.80964163e-02
      2.90482074e-01 2.05191612e-01 1.84177995e-01 3.20148349e-01
      2.02719420e-01 3.07787389e-01 3.06551278e-01 1.82941914e-01
      2.63288021e-01 2.94190377e-01 2.49690980e-01 2.45982707e-01
      2.60815829e-01 2.43510514e-01 2.80593336e-01 7.19406664e-01</_>
    <_>
      7.23404288e-02 9.07801390e-02 9.92907807e-02 9.50354636e-02
      2.55319141e-02 6.24113493e-02 5.39007075e-02 4.25531901e-03
      8.51063803e-03 5.53191490e-02 6.38297871e-02 3.40425521e-02
      9.21985805e-02 9.78723392e-02 8.51063803e-02 5.95744699e-02
      3.57446820e-01 1.46099299e-01 1.61702126e-01 3.34751785e-01
      1.98581561e-01 3.06382984e-01 3.02127659e-01 1.92907795e-01
      2.58156061e-01 2.96453893e-01 2.51063824e-01 2.52482265e-01
      2.53900707e-01 2.42553189e-01 2.35460997e-01 7.64539063e-01</_>
    <_>
      7.03592822e-02 8.98203626e-02 7.93413147e-02 6.13772459e-02
      2.39520967e-02 7.93413147e-02 7.18562901e-02 2.99401190e-02
      2.09580846e-02 7.78443143e-02 6.28742501e-02 2.09580846e-02
      6.88622743e-02 8.98203626e-02 8.98203626e-02 6.28742501e-02
      3.00898224e-01 2.05089822e-01 1.82634726e-01 3.11377257e-01
      1.84131742e-01 3.36826354e-01 3.03892225e-01 1.75149709e-01
      2.75449097e-01 2.79940128e-01 2.63473064e-01 2.42514968e-01
      2.57485032e-01 2.36526966e-01 2.91916192e-01 7.08083928e-01</_>
    <_>
      9.26243588e-02 1.02915950e-01 1.02915950e-01 9.43396240e-02 0.
      7.20411688e-02 0. 0. 0. 6.86106309e-02 0. 0. 1.08061753e-01
      1.28644943e-01 1.21783875e-01 1.08061753e-01 3.92795861e-01
      7.20411688e-02 6.86106309e-02 4.66552347e-01 2.00686112e-01
      3.72212708e-01 2.24699825e-01 2.02401370e-01 2.72727281e-01
      2.71012008e-01 2.67581463e-01 1.97255582e-01 3.05317342e-01
      2.29845628e-01 1.40651792e-01 8.59348118e-01</_>
    <_>
      9.77701545e-02 1.28644943e-01 1.20068610e-01 9.60548893e-02 0.
      6.86106309e-02 0. 0. 0. 6.86106309e-02 1.71526591e-03 0.
      1.08061753e-01 1.02915950e-01 1.02915950e-01 1.04631215e-01
      4.42538589e-01 6.86106309e-02 7.03258961e-02 4.18524861e-01
      2.05831915e-01 3.68782163e-01 2.24699825e-01 2.00686097e-01
      2.72727281e-01 2.72727281e-01 2.95025736e-01 2.16123492e-01
      2.79588342e-01 2.09262431e-01 1.38936535e-01 8.61063480e-01</_>
    <_>
      1.08280256e-01 1.11464970e-01 1.11464970e-01 9.87261161e-02 0.
      6.36942685e-02 0. 0. 0. 6.36942685e-02 0. 0. 1.09872609e-01
      1.21019110e-01 1.11464970e-01 1.00318469e-01 4.29936320e-01
      6.36942685e-02 6.36942685e-02 4.42675143e-01 2.18152866e-01
      3.59872639e-01 2.22929940e-01 1.99044585e-01 2.72293001e-01
      2.72293001e-01 2.83439487e-01 2.10191086e-01 2.94586003e-01
      2.11783439e-01 1.27388537e-01 8.72611523e-01</_>
    <_>
      1.06250003e-01 1.10937499e-01 1.10937499e-01 1.09375000e-01 0.
      6.25000000e-02 0. 0. 0. 6.25000000e-02 0. 0. 1.01562500e-01
      1.17187500e-01 1.10937499e-01 1.07812501e-01 4.37500000e-01
      6.25000000e-02 6.25000000e-02 4.37500000e-01 2.07812503e-01
      3.53125006e-01 2.21874997e-01 2.17187494e-01 2.76562512e-01
      2.73437500e-01 2.79687494e-01 2.20312506e-01 2.81250000e-01
      2.18750000e-01 1.25000000e-01 8.75000000e-01</_>
    <_>
      1.11801244e-01 1.21118009e-01 1.10248446e-01 1.00931674e-01
      1.08695654e-02 1.10248446e-01 1.08695649e-01 1.70807447e-02
      9.78260860e-02 2.01863348e-02 1.86335407e-02 9.00621116e-02
      3.72670814e-02 0. 0. 4.50310558e-02 4.44099367e-01 2.46894404e-01
      2.26708069e-01 8.22981372e-02 2.57763982e-01 2.51552790e-01
      2.37577647e-01 2.53105581e-01 2.85714269e-01 2.67080754e-01
      3.54037255e-01 3.36956531e-01 1.55279502e-01 1.53726712e-01
      2.57763982e-01 7.42236018e-01</_>
    <_>
      1.09256446e-01 1.21396057e-01 1.21396057e-01 1.09256446e-01
      1.06221549e-02 1.10773899e-01 1.07739002e-01 7.58725358e-03
      9.55993906e-02 1.97268594e-02 1.82094090e-02 8.95295888e-02
      3.94537188e-02 0. 0. 3.94537188e-02 4.61305022e-01 2.36722305e-01
      2.23065242e-01 7.89074376e-02 2.54931718e-01 2.51896828e-01
      2.47344479e-01 2.45827004e-01 2.77693480e-01 2.76176035e-01
      3.52048576e-01 3.45978767e-01 1.54779971e-01 1.47192717e-01
      2.56449163e-01 7.43550897e-01</_>
    <_>
      7.84313753e-02 9.80392173e-02 9.80392173e-02 6.69934675e-02
      2.77777780e-02 1.19281046e-01 8.66013095e-02 1.96078438e-02
      7.84313753e-02 7.18954280e-02 9.47712436e-02 4.73856218e-02
      4.90196086e-02 0. 3.26797389e-03 6.04575165e-02 3.41503292e-01
      2.53267974e-01 2.92483687e-01 1.12745099e-01 2.33660132e-01
      2.89215684e-01 2.82679737e-01 1.94444448e-01 3.52941185e-01
      2.74509817e-01 3.23529422e-01 2.71241844e-01 1.99346408e-01
      2.05882356e-01 3.72549027e-01 6.27451062e-01</_>
    <_>
      1.26582280e-01 1.26582280e-01 1.01265825e-01 6.07594922e-02 0.
      5.06329127e-02 7.59493634e-02 1.87341779e-01 0. 0. 0.
      1.77215189e-01 0. 0. 0. 9.36708897e-02 4.15189862e-01
      3.13924074e-01 1.77215189e-01 9.36708897e-02 1.26582280e-01
      1.77215189e-01 1.77215189e-01 5.18987358e-01 2.70886064e-01
      1.36708856e-01 3.03797483e-01 4.25316453e-01 0. 2.70886064e-01
      1.26582280e-01 8.73417795e-01</_>
    <_>
      1.79211468e-01 1.79211468e-01 1.79211468e-01 1.61290318e-01 0. 0.
      0. 1.07526883e-01 0. 0. 0. 1.07526883e-01 0. 0. 0. 8.60215053e-02
      6.98924661e-01 1.07526883e-01 1.07526883e-01 8.60215053e-02
      1.79211468e-01 1.79211468e-01 1.79211468e-01 4.62365597e-01
      2.65232980e-01 1.61290318e-01 3.58422935e-01 4.48028684e-01 0.
      1.93548381e-01 0. 9.99999940e-01</_>
    <_>
      8.86699483e-02 9.85221639e-02 9.97536927e-02 9.85221639e-02
      5.04926108e-02 5.91133013e-02 0. 0. 4.43349741e-02 6.65024593e-02
      0. 0. 9.97536927e-02 1.00985222e-01 9.97536927e-02 9.35960561e-02
      3.85467976e-01 1.09605908e-01 1.10837430e-01 3.94088626e-01
      2.83251226e-01 3.25123161e-01 1.99507385e-01 1.92118227e-01
      2.41379306e-01 2.64778316e-01 2.96798021e-01 1.98275864e-01
      3.11576337e-01 1.93349749e-01 1.25615761e-01 8.74384224e-01</_>
    <_>
      7.22057372e-02 8.20969343e-02 7.91295767e-02 7.12166205e-02
      2.86844708e-02 7.61622190e-02 7.81404525e-02 1.68150347e-02
      1.97823942e-02 7.02274963e-02 7.41839781e-02 1.08803166e-02
      7.12166205e-02 8.90207738e-02 8.90207738e-02 7.12166205e-02
      3.04648876e-01 1.99802175e-01 1.75074190e-01 3.20474803e-01
      1.91889226e-01 3.17507446e-01 3.20474803e-01 1.70128584e-01
      2.93768555e-01 2.90801197e-01 2.59149373e-01 2.45301679e-01
      2.50247300e-01 2.45301694e-01 2.98714131e-01 7.01285899e-01</_>
    <_>
      9.91501436e-02 9.49008465e-02 9.91501436e-02 7.93201104e-02
      5.38243614e-02 6.94051012e-02 0. 0. 5.09915017e-02 6.94051012e-02
      0. 2.83286115e-03 9.77337137e-02 1.01983003e-01 9.91501436e-02
      8.21529776e-02 3.72521251e-01 1.23229459e-01 1.23229459e-01
      3.81019831e-01 3.01699728e-01 3.35694075e-01 1.98300287e-01
      1.64305955e-01 2.50708222e-01 2.46458918e-01 3.17280471e-01
      1.78470254e-01 3.20113331e-01 1.84135973e-01 1.38810202e-01
      8.61189783e-01</_>
    <_>
      6.10021800e-02 7.62527213e-02 7.62527213e-02 6.10021800e-02
      2.72331163e-02 7.29847476e-02 9.36819166e-02 2.61437912e-02
      2.50544660e-02 7.73420483e-02 1.02396511e-01 2.61437912e-02
      6.10021800e-02 7.62527213e-02 7.62527213e-02 6.10021800e-02
      2.74509788e-01 2.20043570e-01 2.30936825e-01 2.74509788e-01
      1.74291939e-01 3.02832246e-01 3.48583877e-01 1.74291939e-01
      2.97385633e-01 2.93028325e-01 2.37472773e-01 2.57080615e-01
      2.39651412e-01 2.65795231e-01 3.46405208e-01 6.53594732e-01</_>
    <_>
      9.54907164e-02 1.06100798e-01 1.03448279e-01 9.41644534e-02
      5.03978767e-02 5.96816987e-02 0. 0. 3.97877991e-02 6.36604801e-02
      0. 0. 9.54907164e-02 9.54907164e-02 1.03448279e-01 9.28381979e-02
      3.99204254e-01 1.10079572e-01 1.03448279e-01 3.87267917e-01
      2.81167120e-01 3.24933708e-01 2.06896558e-01 1.87002659e-01
      2.48010606e-01 2.53315657e-01 3.11671078e-01 1.97612733e-01
      2.94429719e-01 1.96286470e-01 1.23342179e-01 8.76657844e-01</_>
    <_>
      8.77742916e-02 1.09717868e-01 1.09717868e-01 7.21003115e-02
      1.25391847e-02 9.24764872e-02 9.40438882e-02 7.83699099e-03
      2.82131657e-02 1.11285269e-01 6.89655170e-02 4.70219413e-03
      3.76175530e-02 6.26959279e-02 6.26959279e-02 3.76175530e-02
      3.79310340e-01 2.06896558e-01 2.13166162e-01 2.00626954e-01
      1.66144192e-01 3.76175553e-01 3.35423201e-01 1.22257054e-01
      2.86833853e-01 3.15047026e-01 3.02507818e-01 2.83699065e-01
      2.39811927e-01 1.73981190e-01 3.66771162e-01 6.33228838e-01</_>
    <_>
      9.97229889e-02 9.97229889e-02 9.69529077e-02 8.72576162e-02
      5.40166199e-02 7.06371218e-02 0. 0. 5.67867048e-02 6.92520812e-02
      0. 0. 9.83379483e-02 8.86426568e-02 9.27977860e-02 8.58725756e-02
      3.83656502e-01 1.24653742e-01 1.26038790e-01 3.65650952e-01
      3.08864236e-01 3.28254849e-01 1.89750701e-01 1.73130184e-01
      2.56232679e-01 2.54847646e-01 3.24099720e-01 1.84210524e-01
      3.13019395e-01 1.78670362e-01 1.39889210e-01 8.60110819e-01</_>
    <_>
      7.69230798e-02 8.83575901e-02 8.41995850e-02 6.96465671e-02
      2.18295213e-02 6.96465671e-02 7.38045722e-02 1.03950100e-02
      1.45530142e-02 6.23700619e-02 8.00415799e-02 9.35550965e-03
      7.48440772e-02 9.35550928e-02 8.83575901e-02 8.21205825e-02
      3.19126815e-01 1.75675675e-01 1.66320175e-01 3.38877320e-01
      1.88149691e-01 3.13929319e-01 3.26403350e-01 1.71517670e-01
      3.08731794e-01 2.80665278e-01 2.56756753e-01 2.38045722e-01
      2.45322242e-01 2.59875238e-01 2.85862774e-01 7.14137197e-01</_>
    <_>
      7.11743757e-02 8.89679715e-02 8.89679715e-02 7.11743757e-02
      6.22775815e-02 8.89679715e-02 0. 0. 5.87188601e-02 8.89679715e-02
      0. 0. 9.96441245e-02 1.20996438e-01 8.89679715e-02 7.11743757e-02
      3.20284694e-01 1.51245549e-01 1.47686839e-01 3.80782932e-01
      2.91814923e-01 3.87900352e-01 1.77935943e-01 1.42348751e-01
      2.31316715e-01 2.59786487e-01 3.11387897e-01 1.60142347e-01
      3.68327409e-01 1.60142347e-01 1.77935943e-01 8.22064042e-01</_>
    <_>
      8.01232681e-02 8.47457647e-02 7.70416036e-02 7.08782747e-02
      4.77657951e-02 9.70724225e-02 1.38674881e-02 9.24499240e-03
      1.23266568e-02 1.84899848e-02 1.01694912e-01 4.62249629e-02
      9.55315903e-02 8.16641003e-02 8.93682614e-02 7.39599392e-02
      3.12788904e-01 1.67950690e-01 1.78736523e-01 3.40523899e-01
      2.35747308e-01 2.81972289e-01 2.81972259e-01 2.00308174e-01
      3.52850556e-01 1.98767334e-01 3.09707254e-01 1.71032354e-01
      2.08012328e-01 3.11248094e-01 2.31124803e-01 7.68875182e-01</_>
    <_>
      9.47368443e-02 9.94152054e-02 9.35672522e-02 8.65497068e-02
      3.39181274e-02 8.18713456e-02 1.52046783e-02 0. 0. 9.35672503e-03
      8.30409378e-02 4.09356728e-02 8.53801146e-02 9.35672522e-02
      9.12280679e-02 9.12280679e-02 3.74269009e-01 1.30994156e-01
      1.33333325e-01 3.61403495e-01 2.14035094e-01 2.84210503e-01
      2.83040941e-01 2.18713447e-01 3.50877196e-01 1.96491212e-01
      3.09941530e-01 1.95321634e-01 1.88304096e-01 3.06432754e-01
      1.89473689e-01 8.10526311e-01</_>
    <_>
      9.44148973e-02 9.97340456e-02 9.30851027e-02 8.24468061e-02
      3.59042548e-02 9.04255286e-02 1.19680855e-02 0. 0. 1.06382975e-02
      8.64361674e-02 4.25531901e-02 7.71276578e-02 9.30851027e-02
      9.04255286e-02 9.17553157e-02 3.69680852e-01 1.38297871e-01
      1.39627650e-01 3.52393627e-01 2.07446814e-01 2.93882966e-01
      2.81914890e-01 2.16755316e-01 3.63031924e-01 1.82180852e-01
      3.20478737e-01 1.87500000e-01 1.80851057e-01 3.11170220e-01
      1.99468076e-01 8.00531924e-01</_>
    <_>
      4.43037972e-02 6.32911399e-02 6.32911399e-02 3.48101258e-02
      5.85443042e-02 1.43987343e-01 5.69620244e-02 2.37341765e-02
      7.91139249e-03 4.90506329e-02 1.29746839e-01 2.68987343e-02
      6.01265840e-02 9.49367061e-02 9.49367061e-02 4.74683531e-02
      2.05696195e-01 2.83227861e-01 2.13607609e-01 2.97468364e-01
      1.70886070e-01 3.51265818e-01 3.44936699e-01 1.32911384e-01
      3.65506351e-01 2.00949371e-01 3.10126603e-01 1.78797469e-01
      2.12025315e-01 2.99050629e-01 3.79746854e-01 6.20253146e-01</_>
    <_>
      8.36653411e-02 8.63213837e-02 7.96812773e-02 9.16334689e-02
      4.64807451e-02 8.89774263e-02 1.06241703e-02 0. 0. 1.19521916e-02
      9.29614902e-02 4.91367877e-02 8.63213837e-02 9.16334689e-02
      8.76494050e-02 9.29614902e-02 3.41301471e-01 1.46082342e-01
      1.54050469e-01 3.58565748e-01 2.16467470e-01 2.78884470e-01
      2.70916343e-01 2.33731747e-01 3.58565748e-01 2.00531214e-01
      3.05444896e-01 1.81938916e-01 1.89907044e-01 3.22709173e-01
      2.04515278e-01 7.95484781e-01</_>
    <_>
      1.67064443e-02 9.78520289e-02 9.78520289e-02 7.63723180e-02
      6.20525070e-02 2.86396183e-02 7.63723180e-02 2.38663480e-02
      1.24105014e-01 8.59188512e-02 1.05011933e-01 1.09785199e-01
      7.39856809e-02 2.14797128e-02 0. 0. 2.88782835e-01 1.90930784e-01
      4.24820989e-01 9.54653919e-02 2.76849627e-01 2.33890221e-01
      2.79236287e-01 2.10023865e-01 1.50357991e-01 3.12649190e-01
      2.05250591e-01 2.74463028e-01 3.05489272e-01 2.14797139e-01
      2.95942724e-01 7.04057336e-01</_>
    <_>
      9.60000008e-02 9.86666679e-02 8.79999995e-02 8.39999989e-02
      4.39999998e-02 7.46666640e-02 9.33333300e-03 0. 0. 9.33333300e-03
      8.26666653e-02 3.99999991e-02 8.39999989e-02 9.33333337e-02
      1.00000001e-01 9.60000008e-02 3.66666675e-01 1.27999991e-01
      1.31999999e-01 3.73333335e-01 2.24000007e-01 2.75999993e-01
      2.80000001e-01 2.19999999e-01 3.49333346e-01 1.86666667e-01
      3.13333333e-01 1.81333318e-01 1.86666667e-01 3.18666667e-01
      1.75999999e-01 8.24000061e-01</_>
    <_>
      1.00175746e-01 1.23022847e-01 1.37082607e-01 1.24780320e-01
      6.85413033e-02 4.92091402e-02 5.27240783e-02 1.23022851e-02
      8.78734589e-02 5.09666093e-02 3.51493843e-02 0. 5.62390164e-02
      1.00175746e-01 1.75746926e-03 0. 4.85061526e-01 1.82776809e-01
      1.73989445e-01 1.58172235e-01 3.12829524e-01 3.23374331e-01
      2.26713538e-01 1.37082607e-01 1.84534267e-01 2.84710020e-01
      3.40949029e-01 3.26889277e-01 2.95254827e-01 3.69068533e-02
      1.88049212e-01 8.11950743e-01</_>
    <_>
      9.90566015e-02 1.41509429e-01 1.41509429e-01 1.29716977e-01
      7.31132105e-02 2.59433966e-02 4.71698120e-02 0. 7.78301880e-02
      5.42452820e-02 3.30188684e-02 0. 5.42452820e-02 1.22641511e-01 0.
      0. 5.11792421e-01 1.46226421e-01 1.65094346e-01 1.76886797e-01
      3.04245293e-01 3.44339609e-01 2.21698120e-01 1.29716977e-01
      1.58018872e-01 2.85377353e-01 3.39622647e-01 3.18396211e-01
      3.08962256e-01 3.30188684e-02 1.60377368e-01 8.39622617e-01</_>
    <_>
      9.28433239e-02 1.16054155e-01 1.16054155e-01 1.16054155e-01
      8.89748558e-02 3.86847183e-02 5.22243716e-02 2.32108310e-02
      9.28433239e-02 4.83558998e-02 3.09477765e-02 0. 5.99613152e-02
      1.21856868e-01 1.93423603e-03 0. 4.41005766e-01 2.03094780e-01
      1.72147006e-01 1.83752418e-01 3.34622830e-01 3.24951649e-01
      2.01160535e-01 1.39264986e-01 1.62475824e-01 2.76595742e-01
      3.36557060e-01 3.07543516e-01 3.23017418e-01 3.28820124e-02
      1.70212775e-01 8.29787135e-01</_>
    <_>
      1.04779415e-01 1.28676474e-01 1.28676474e-01 1.15808822e-01
      8.27205852e-02 3.67647074e-02 4.77941185e-02 1.28676472e-02
      9.00735259e-02 4.77941185e-02 2.75735296e-02 0. 6.06617630e-02
      1.13970585e-01 1.83823530e-03 0. 4.77941185e-01 1.80147052e-01
      1.65441170e-01 1.76470578e-01 3.38235289e-01 3.27205896e-01
      2.05882356e-01 1.28676474e-01 1.69117644e-01 2.72058845e-01
      3.52941185e-01 3.05147082e-01 3.12500000e-01 2.94117648e-02
      1.59926474e-01 8.40073526e-01</_>
    <_>
      9.43025574e-02 1.17878191e-01 1.17878191e-01 1.29666016e-01
      9.23379138e-02 3.92927304e-02 5.69744594e-02 1.37524558e-02
      9.62671936e-02 5.10805510e-02 2.75049116e-02 0. 5.50098233e-02
      1.08055010e-01 0. 0. 4.59724963e-01 2.02357560e-01 1.74852654e-01
      1.63064837e-01 3.37917477e-01 3.16306472e-01 2.02357560e-01
      1.43418476e-01 1.61100194e-01 2.92730838e-01 3.43811393e-01
      3.18271130e-01 3.10412586e-01 2.75049116e-02 1.74852654e-01
      8.25147390e-01</_>
    <_>
      1.04587153e-01 1.28440365e-01 1.28440365e-01 1.00917429e-01
      8.07339475e-02 3.85321118e-02 4.77064215e-02 1.28440363e-02
      8.62385333e-02 5.13761453e-02 2.93577984e-02 0. 6.23853207e-02
      1.26605511e-01 1.83486240e-03 0. 4.62385327e-01 1.79816529e-01
      1.66972488e-01 1.90825701e-01 3.33944947e-01 3.44954133e-01
      2.07339466e-01 1.13761462e-01 1.72477067e-01 2.62385309e-01
      3.52293581e-01 2.89908230e-01 3.26605499e-01 3.11926603e-02
      1.66972488e-01 8.33027482e-01</_>
    <_>
      9.61923823e-02 1.20240480e-01 1.16232462e-01 1.32264525e-01
      9.01803598e-02 4.00801599e-02 5.21042086e-02 1.40280565e-02
      9.41883773e-02 5.21042086e-02 2.80561130e-02 0. 5.41082174e-02
      1.10220440e-01 0. 0. 4.64929849e-01 1.96392789e-01 1.74348697e-01
      1.64328665e-01 3.34669352e-01 3.22645277e-01 1.96392789e-01
      1.46292582e-01 1.64328665e-01 2.90581167e-01 3.46693397e-01
      3.14629227e-01 3.10621232e-01 2.80561130e-02 1.72344685e-01
      8.27655315e-01</_>
    <_>
      7.77626187e-02 7.91268796e-02 4.50204648e-02 7.09413365e-02
      7.36698508e-02 7.63983652e-02 9.54979565e-03 7.36698508e-02
      7.63983652e-02 4.50204648e-02 3.95634398e-02 7.09413365e-02
      6.54843077e-02 2.72851288e-02 1.10504776e-01 5.86630292e-02
      2.72851288e-01 2.33287871e-01 2.31923610e-01 2.61937261e-01
      2.93315142e-01 2.27830827e-01 2.04638481e-01 2.74215549e-01
      2.52387464e-01 1.90995902e-01 3.06957722e-01 1.99181452e-01
      2.14188278e-01 2.79672593e-01 1.70532078e-01 8.29467893e-01</_>
    <_>
      5.37974685e-02 9.49367061e-02 1.58227850e-02 3.16455700e-02
      1.12341769e-01 7.75316432e-02 3.32278498e-02 1.12341769e-01
      1.06012657e-01 3.95569615e-02 8.06962028e-02 1.06012657e-01
      2.21518986e-02 3.16455704e-03 7.91139230e-02 3.16455700e-02
      1.96202531e-01 3.35443020e-01 3.32278490e-01 1.36075944e-01
      2.94303775e-01 2.15189874e-01 2.08860755e-01 2.81645566e-01
      2.43670881e-01 1.26582280e-01 3.38607579e-01 1.93037987e-01
      1.70886084e-01 2.97468364e-01 2.31012672e-01 7.68987298e-01</_>
    <_>
      2.54237279e-02 5.69007248e-02 1.33171910e-02 4.60048430e-02
      1.01694912e-01 8.35351124e-02 3.26876529e-02 9.92736071e-02
      1.08958840e-01 4.47941907e-02 5.81113808e-02 1.06537528e-01
      6.53753057e-02 2.54237279e-02 8.35351124e-02 4.84261513e-02
      1.41646490e-01 3.17191273e-01 3.18401933e-01 2.22760290e-01
      3.01452786e-01 2.10653752e-01 1.87651336e-01 3.00242126e-01
      2.15496376e-01 1.88861996e-01 2.67554462e-01 1.91283286e-01
      2.44552076e-01 2.96610177e-01 2.19128340e-01 7.80871689e-01</_>
    <_>
      8.37696344e-02 0. 0. 0. 1.62303671e-01 8.37696344e-02
      7.85340294e-02 7.06806257e-02 1.41361251e-01 7.85340294e-02
      8.90052393e-02 1.17801048e-01 9.42408368e-02 0. 0. 0.
      8.37696344e-02 3.95287961e-01 4.26701546e-01 9.42408368e-02
      4.81675386e-01 1.62303656e-01 1.67539269e-01 1.88481674e-01
      2.56544501e-01 2.51308888e-01 3.29842925e-01 1.49214655e-01
      3.14136118e-01 2.06806287e-01 3.29842925e-01 6.70157075e-01</_>
    <_>
      9.44206044e-02 0. 0. 0. 1.43776819e-01 8.58369097e-02
      8.58369097e-02 7.72532225e-02 1.43776819e-01 8.58369097e-02
      9.01287571e-02 9.65665206e-02 9.65665206e-02 0. 0. 0.
      9.44206044e-02 3.92703861e-01 4.16308999e-01 9.65665206e-02
      4.78540748e-01 1.71673819e-01 1.75965667e-01 1.73819751e-01
      2.70386279e-01 2.68240333e-01 3.24034333e-01 1.63090140e-01
      3.26180249e-01 1.86695278e-01 3.47639471e-01 6.52360439e-01</_>
    <_>
      9.79381427e-02 0. 0. 0. 1.62371129e-01 1.03092782e-01
      9.79381427e-02 1.15979381e-01 1.52061850e-01 7.73195848e-02
      7.73195848e-02 5.41237108e-02 6.18556701e-02 0. 0. 0.
      9.79381427e-02 4.79381442e-01 3.60824734e-01 6.18556701e-02
      4.74226803e-01 1.80412367e-01 1.75257728e-01 1.70103088e-01
      2.78350502e-01 2.37113401e-01 3.63402069e-01 2.13917524e-01
      2.91237116e-01 1.31443292e-01 3.55670094e-01 6.44329846e-01</_>
    <_>
      9.22746807e-02 0. 0. 0. 1.45922750e-01 1.07296139e-01
      1.22317597e-01 1.15879826e-01 1.37339056e-01 6.43776804e-02
      6.43776804e-02 5.79399131e-02 9.22746807e-02 0. 0. 0.
      9.22746807e-02 4.91416335e-01 3.24034333e-01 9.22746807e-02
      4.67811167e-01 1.71673819e-01 1.86695278e-01 1.73819736e-01
      2.63948500e-01 2.78969944e-01 3.45493555e-01 2.38197416e-01
      2.93991417e-01 1.22317597e-01 3.58369112e-01 6.41630888e-01</_>
    <_>
      9.06976759e-02 0. 0. 0. 1.39534891e-01 1.09302327e-01
      1.16279073e-01 1.02325581e-01 1.41860470e-01 6.97674453e-02
      6.97674453e-02 6.27906993e-02 9.76744220e-02 0. 0. 0.
      9.06976759e-02 4.67441887e-01 3.44186068e-01 9.76744220e-02
      4.69767451e-01 1.79069772e-01 1.86046511e-01 1.65116280e-01
      2.69767463e-01 2.83720940e-01 3.39534879e-01 2.18604654e-01
      3.09302330e-01 1.32558137e-01 3.65116298e-01 6.34883761e-01</_>
    <_>
      8.73362422e-02 0. 0. 0. 1.46288216e-01 8.73362422e-02
      1.06986903e-01 9.60698724e-02 1.44104809e-01 8.73362422e-02
      8.73362422e-02 6.98689967e-02 8.73362422e-02 0. 0. 0.
      8.73362422e-02 4.36681241e-01 3.88646305e-01 8.73362422e-02
      4.65065509e-01 1.74672484e-01 1.94323152e-01 1.65938869e-01
      2.62008727e-01 2.81659395e-01 3.20960701e-01 2.03056782e-01
      3.18777293e-01 1.57205239e-01 3.68995637e-01 6.31004393e-01</_>
    <_>
      1.17744610e-01 1.22719735e-01 9.28689912e-02 5.97014911e-02 0. 0.
      0. 8.45771134e-02 0. 0. 0. 8.12603682e-02 1.11111112e-01
      1.32669985e-01 1.29353240e-01 6.79933652e-02 3.93034846e-01
      8.45771134e-02 8.12603682e-02 4.41127688e-01 2.28855729e-01
      2.55389720e-01 2.22222239e-01 2.93532342e-01 1.85737967e-01
      1.70812607e-01 2.40464345e-01 2.37147599e-01 2.43781090e-01
      2.78606981e-01 0. 1.</_>
    <_>
      1.08695649e-01 1.22282609e-01 1.11413047e-01 5.29891290e-02 0. 0.
      0. 7.47282580e-02 3.12500000e-02 4.07608692e-03 1.08695654e-02
      6.92934766e-02 1.10054351e-01 1.22282609e-01 1.22282609e-01
      5.97826093e-02 3.95380437e-01 7.47282580e-02 1.15489125e-01
      4.14402187e-01 2.50000000e-01 2.48641312e-01 2.44565219e-01
      2.56793499e-01 1.79347813e-01 1.67119563e-01 2.30978251e-01
      2.39130437e-01 2.67663062e-01 2.62228251e-01 1.49456523e-02
      9.85054433e-01</_>
    <_>
      6.61764741e-02 8.40336159e-02 8.40336159e-02 4.93697487e-02
      1.68067235e-02 4.72689085e-02 5.35714291e-02 8.82352963e-02
      3.67647074e-02 5.46218492e-02 5.46218492e-02 9.03361365e-02
      5.98739497e-02 8.08823556e-02 8.40336159e-02 4.93697487e-02
      2.83613443e-01 2.05882370e-01 2.36344546e-01 2.74159670e-01
      1.79621860e-01 2.66806722e-01 2.76260495e-01 2.77310938e-01
      2.17436984e-01 2.17436984e-01 2.14285716e-01 2.75210083e-01
      2.32142866e-01 2.78361350e-01 2.10084036e-01 7.89915979e-01</_>
    <_>
      1.04553118e-01 1.28161892e-01 1.23102866e-01 5.39629012e-02 0. 0.
      0. 8.26306939e-02 1.34907253e-02 0. 0. 8.43170285e-02
      1.04553118e-01 1.18043847e-01 1.33220911e-01 5.39629012e-02
      4.09780800e-01 8.26306939e-02 9.78077501e-02 4.09780800e-01
      2.22596958e-01 2.46205747e-01 2.56323785e-01 2.74873525e-01
      1.58516020e-01 1.58516020e-01 2.32715011e-01 2.59696454e-01
      2.36087680e-01 2.71500826e-01 0. 1.</_>
    <_>
      1.10139862e-01 1.22377619e-01 1.24125876e-01 5.94405606e-02 0. 0.
      0. 8.21678340e-02 0. 0. 0. 7.51748234e-02 1.17132865e-01
      1.22377619e-01 1.22377619e-01 6.46853149e-02 4.16083902e-01
      8.21678340e-02 7.51748234e-02 4.26573426e-01 2.27272719e-01
      2.44755238e-01 2.46503502e-01 2.81468511e-01 1.74825177e-01
      1.76573426e-01 2.32517481e-01 2.65734255e-01 2.39510477e-01
      2.62237757e-01 0. 1.</_>
    <_>
      5.32544367e-02 8.87573957e-02 8.87573957e-02 2.66272184e-02 0. 0.
      0. 1.18343197e-01 3.55029590e-02 5.91715984e-02 5.91715984e-02
      8.87573957e-02 8.87573957e-02 1.47928998e-01 1.39053255e-01
      5.91715984e-03 2.57396460e-01 1.18343197e-01 2.42603555e-01
      3.81656796e-01 1.77514791e-01 2.95857996e-01 2.86982238e-01
      2.39644974e-01 1.18343197e-01 1.74556211e-01 1.42011836e-01
      2.33727813e-01 3.31360936e-01 2.92899400e-01 1.18343197e-01
      8.81656826e-01</_>
    <_>
      1.13798007e-01 1.28022760e-01 1.16642959e-01 5.54765277e-02 0. 0.
      0. 7.82361329e-02 5.68990037e-03 0. 0. 7.11237565e-02
      1.15220487e-01 1.28022760e-01 1.25177816e-01 6.25889078e-02
      4.13940251e-01 7.82361329e-02 7.68136531e-02 4.31009978e-01
      2.34708399e-01 2.56045520e-01 2.41820782e-01 2.67425328e-01
      1.76386923e-01 1.70697019e-01 2.41820768e-01 2.50355601e-01
      2.48933151e-01 2.58890480e-01 0. 1.</_>
    <_>
      1.01960786e-01 6.27451017e-02 1.56862754e-02 0. 1.76470596e-02
      6.66666701e-02 1.25490203e-01 1.41176477e-01 1.76470596e-02
      8.82352963e-02 1.33333340e-01 8.23529437e-02 9.80392173e-02
      4.90196086e-02 0. 0. 1.80392161e-01 3.50980401e-01 3.21568638e-01
      1.47058830e-01 2.35294133e-01 2.66666681e-01 2.74509817e-01
      2.23529428e-01 3.01960796e-01 3.11764717e-01 2.49019623e-01
      2.82352954e-01 2.52941191e-01 2.15686291e-01 4.13725495e-01
      5.86274564e-01</_>
    <_>
      1.13953486e-01 6.97674453e-02 2.32558139e-03 0. 1.16279069e-02
      6.04651161e-02 1.18604653e-01 1.02325581e-01 1.62790697e-02
      6.51162788e-02 1.18604653e-01 1.39534891e-01 1.04651161e-01
      6.51162788e-02 1.16279069e-02 0. 1.86046511e-01 2.93023258e-01
      3.39534879e-01 1.81395352e-01 2.46511638e-01 2.60465115e-01
      2.51162797e-01 2.41860479e-01 2.93023258e-01 2.88372099e-01
      2.55813956e-01 2.23255813e-01 2.51162797e-01 2.69767463e-01
      3.62790704e-01 6.37209356e-01</_>
    <_>
      1.01851851e-01 5.74074090e-02 0. 0. 1.11111114e-02 7.22222254e-02
      1.22222222e-01 8.51851851e-02 1.48148146e-02 6.11111112e-02
      1.11111112e-01 1.50000006e-01 1.12962961e-01 7.22222254e-02
      2.77777780e-02 0. 1.59259260e-01 2.90740728e-01 3.37037027e-01
      2.12962970e-01 2.40740731e-01 2.62962967e-01 2.61111110e-01
      2.35185191e-01 2.85185188e-01 2.96296299e-01 2.42592603e-01
      2.07407415e-01 2.61111110e-01 2.88888901e-01 3.66666675e-01
      6.33333385e-01</_>
    <_>
      6.48330078e-02 2.75049116e-02 0. 0. 3.53634581e-02 1.37524560e-01
      1.17878191e-01 1.57170929e-02 3.53634581e-02 9.62671936e-02
      1.96463659e-01 1.17878191e-01 9.23379138e-02 5.50098233e-02
      7.85854645e-03 0. 9.23379213e-02 3.06483299e-01 4.45972502e-01
      1.55206278e-01 2.27897823e-01 3.16306472e-01 3.22200388e-01
      1.33595288e-01 3.98821235e-01 3.06483299e-01 2.65225947e-01
      1.33595288e-01 2.78978378e-01 3.22200388e-01 5.48133612e-01
      4.51866388e-01</_>
    <_>
      1.16239317e-01 7.00854734e-02 2.05128212e-02 0. 8.54700897e-03
      5.81196584e-02 1.07692309e-01 1.23076923e-01 1.19658122e-02
      7.35042766e-02 1.16239317e-01 1.12820514e-01 1.09401710e-01
      5.81196584e-02 1.36752138e-02 0. 2.06837609e-01 2.97435910e-01
      3.14529926e-01 1.81196585e-01 2.46153861e-01 2.59829074e-01
      2.58119673e-01 2.35897437e-01 2.90598303e-01 2.90598303e-01
      2.52991468e-01 2.51282066e-01 2.52991468e-01 2.42735043e-01
      3.55555564e-01 6.44444466e-01</_>
    <_>
      1.04693137e-01 7.76173249e-02 2.52707582e-02 0. 1.44404331e-02
      6.85920566e-02 1.04693137e-01 1.35379061e-01 2.16606501e-02
      9.92779806e-02 1.17328517e-01 8.84476528e-02 9.56678689e-02
      4.33213003e-02 3.61010828e-03 0. 2.07581222e-01 3.23104680e-01
      3.26714814e-01 1.42599270e-01 2.36462086e-01 2.88808674e-01
      2.50902504e-01 2.23826706e-01 2.90613711e-01 2.99638987e-01
      2.65342951e-01 2.65342951e-01 2.59927809e-01 2.09386274e-01
      3.89891684e-01 6.10108316e-01</_>
    <_>
      1.05947956e-01 7.24907070e-02 1.67286247e-02 0. 1.67286247e-02
      6.50557652e-02 1.17100373e-01 1.44981414e-01 5.57620823e-03
      7.43494406e-02 1.31970257e-01 9.10780653e-02 9.66542736e-02
      5.94795533e-02 1.85873604e-03 0. 1.95167288e-01 3.43866169e-01
      3.02973986e-01 1.57992572e-01 2.24907070e-01 2.71375477e-01
      2.67657995e-01 2.36059487e-01 3.02973986e-01 2.88104087e-01
      2.60223061e-01 2.78810412e-01 2.36059472e-01 2.24907070e-01
      3.88475835e-01 6.11524105e-01</_>
    <_>
      9.00383145e-02 3.83141753e-03 1.91570877e-03 7.47126415e-02
      4.21455950e-02 1.18773945e-01 1.24521069e-01 5.55555560e-02
      6.89655170e-02 1.09195404e-01 1.18773945e-01 4.59770113e-02
      5.17241396e-02 0. 1.91570877e-03 9.19540226e-02 1.70498073e-01
      3.40996176e-01 3.42911899e-01 1.45593867e-01 2.52873570e-01
      2.31800765e-01 2.47126445e-01 2.68199235e-01 4.19540226e-01
      3.60153258e-01 2.54789263e-01 2.56704986e-01 2.29885057e-01
      2.58620679e-01 4.71264362e-01 5.28735638e-01</_>
    <_>
      7.94223845e-02 0. 7.22021656e-03 8.30324888e-02 3.97111923e-02
      1.31768957e-01 1.37184113e-01 3.24909762e-02 6.31768927e-02
      1.13718413e-01 1.04693137e-01 7.58122727e-02 8.12274367e-02 0. 0.
      5.05415164e-02 1.69675082e-01 3.41155231e-01 3.57400715e-01
      1.31768957e-01 2.63537884e-01 2.45487362e-01 2.49097466e-01
      2.41877258e-01 3.66425991e-01 4.15162444e-01 2.50902534e-01
      2.59927779e-01 2.58122742e-01 2.31046930e-01 4.87364650e-01
      5.12635410e-01</_>
    <_>
      6.82819411e-02 4.40528616e-03 2.20264308e-03 6.16740100e-02
      3.52422893e-02 1.36563882e-01 1.45374447e-01 5.28634377e-02
      6.60792962e-02 1.32158592e-01 1.36563882e-01 4.40528616e-02
      4.18502204e-02 0. 2.20264308e-03 7.04845786e-02 1.36563882e-01
      3.70044082e-01 3.78854662e-01 1.14537440e-01 2.11453751e-01
      2.73127764e-01 2.86343604e-01 2.29074895e-01 4.11894262e-01
      3.81057262e-01 2.44493395e-01 2.62114555e-01 2.40088120e-01
      2.53303945e-01 5.50660789e-01 4.49339181e-01</_>
    <_>
      1.19221412e-01 9.73236002e-03 0. 0. 4.62287106e-02 1.77615568e-01
      1.21654503e-01 1.21654503e-01 6.32603392e-02 1.43552318e-01
      4.86618020e-02 4.13625315e-02 1.04622871e-01 2.43309001e-03 0. 0.
      1.28953770e-01 4.67153281e-01 2.96836972e-01 1.07055962e-01
      3.33333343e-01 3.33333343e-01 1.70316309e-01 1.63017035e-01
      3.45498770e-01 3.69829684e-01 3.52798045e-01 2.43309006e-01
      3.13868612e-01 9.00243372e-02 4.91484195e-01 5.08515775e-01</_>
    <_>
      8.80829021e-02 5.18134702e-03 0. 0. 4.92227972e-02 1.78756475e-01
      1.29533678e-01 1.13989636e-01 5.69948182e-02 1.60621762e-01
      7.77202100e-02 5.18134721e-02 8.80829021e-02 0. 0. 0.
      9.32642519e-02 4.71502602e-01 3.47150266e-01 8.80829021e-02
      2.82383442e-01 3.44559580e-01 2.07253888e-01 1.65803105e-01
      3.44559610e-01 3.78238350e-01 3.21243525e-01 2.43523315e-01
      3.05699497e-01 1.29533678e-01 5.46632111e-01 4.53367919e-01</_>
    <_>
      9.94371474e-02 5.62851783e-03 0. 0. 6.56660423e-02 1.42589122e-01
      7.50469044e-02 6.56660423e-02 7.31707290e-02 1.51969984e-01
      1.05065666e-01 1.01313323e-01 1.06941842e-01 7.50469044e-03 0. 0.
      1.05065666e-01 3.48968118e-01 4.31519717e-01 1.14446536e-01
      3.45215768e-01 3.07692319e-01 1.80112571e-01 1.66979373e-01
      3.47091943e-01 3.33958745e-01 3.13320816e-01 1.40712947e-01
      3.39587271e-01 2.06378996e-01 4.74671692e-01 5.25328338e-01</_>
    <_>
      8.11455846e-02 0. 0. 0. 7.39856809e-02 1.52744636e-01
      7.15990439e-02 6.20525070e-02 9.78520289e-02 1.64677799e-01
      1.09785199e-01 1.02625296e-01 8.11455846e-02 2.38663494e-03 0. 0.
      8.11455846e-02 3.60381871e-01 4.74940300e-01 8.35322216e-02
      3.34128886e-01 3.19809079e-01 1.81384236e-01 1.64677799e-01
      3.43675435e-01 3.17422420e-01 3.07875901e-01 1.33651555e-01
      3.46062034e-01 2.12410495e-01 4.98806685e-01 5.01193285e-01</_>
    <_>
      1.06941842e-01 7.50469044e-03 0. 0. 6.00375235e-02 1.46341458e-01
      7.50469044e-02 6.75422102e-02 7.31707290e-02 1.51969984e-01
      9.38086286e-02 1.01313323e-01 1.06941842e-01 9.38086305e-03 0. 0.
      1.14446536e-01 3.48968089e-01 4.20262665e-01 1.16322704e-01
      3.47091943e-01 3.15196991e-01 1.68855533e-01 1.68855533e-01
      3.47091913e-01 3.33958745e-01 3.20825517e-01 1.42589122e-01
      3.41463447e-01 1.95121944e-01 4.67166990e-01 5.32833040e-01</_>
    <_>
      4.52488698e-02 0. 1.58371050e-02 1.04072399e-01 9.04977396e-02
      1.13122175e-02 1.17647059e-01 1.04072399e-01 1.04072399e-01
      1.06334843e-01 1.58371050e-02 9.04977396e-02 1.17647059e-01
      2.26244349e-02 0. 5.42986430e-02 1.65158376e-01 3.23529422e-01
      3.16742092e-01 1.94570139e-01 3.57466072e-01 1.40271500e-01
      1.49321273e-01 3.52941185e-01 1.26696840e-01 4.45701361e-01
      1.47058830e-01 3.41628969e-01 3.50678742e-01 1.60633489e-01
      2.51131237e-01 7.48868763e-01</_>
    <_>
      6.32090792e-02 0. 2.59319283e-02 1.24797404e-01 8.10372755e-02
      1.62074547e-02 1.10210694e-01 8.58995169e-02 9.23824981e-02
      1.10210694e-01 9.72447358e-03 8.10372755e-02 1.16693676e-01
      2.10696924e-02 0. 6.15883321e-02 2.13938415e-01 2.93354928e-01
      2.93354928e-01 1.99351698e-01 3.53322536e-01 1.47487834e-01
      1.45867094e-01 3.53322506e-01 1.50729343e-01 4.61912453e-01
      1.60453811e-01 3.46839547e-01 3.40356588e-01 1.52350083e-01
      2.46353298e-01 7.53646731e-01</_>
    <_>
      5.51330782e-02 0. 3.23193930e-02 1.34980991e-01 7.60456249e-02
      1.52091254e-02 1.12167299e-01 7.79467672e-02 8.17490518e-02
      1.14068441e-01 1.14068445e-02 7.60456249e-02 1.34980991e-01
      2.66159698e-02 0. 5.13307974e-02 2.22433463e-01 2.81368792e-01
      2.83269972e-01 2.12927759e-01 3.47908735e-01 1.55893534e-01
      1.55893534e-01 3.40304196e-01 1.33079857e-01 4.96197701e-01
      1.46387830e-01 3.57414484e-01 3.57414484e-01 1.38783276e-01
      2.52851695e-01 7.47148275e-01</_>
    <_>
      5.31732403e-02 0. 2.91595198e-02 1.30360201e-01 6.86106309e-02
      2.22984571e-02 1.18353345e-01 8.06174949e-02 8.40480253e-02
      1.20068610e-01 1.88679248e-02 6.86106309e-02 1.20068610e-01
      2.40137223e-02 0. 6.17495701e-02 2.12692961e-01 2.89879918e-01
      2.91595191e-01 2.05831915e-01 3.25900495e-01 1.66380793e-01
      1.66380793e-01 3.41337919e-01 1.56089187e-01 4.88850772e-01
      1.44082323e-01 3.58490556e-01 3.48198980e-01 1.49228126e-01
      2.79588342e-01 7.20411599e-01</_>
    <_>
      4.48430479e-02 0. 1.56950671e-02 1.03139013e-01 8.96860957e-02
      1.12107620e-02 1.16591930e-01 1.03139013e-01 1.03139013e-01
      1.14349775e-01 1.56950671e-02 8.96860957e-02 1.16591930e-01
      2.24215239e-02 0. 5.38116582e-02 1.63677126e-01 3.20627809e-01
      3.22869956e-01 1.92825109e-01 3.54260087e-01 1.47982061e-01
      1.47982061e-01 3.49775791e-01 1.25560537e-01 4.50672656e-01
      1.45739913e-01 3.38565022e-01 3.56502235e-01 1.59192815e-01
      2.57847548e-01 7.42152512e-01</_>
    <_>
      5.05050495e-02 0. 3.36700343e-02 9.76430997e-02 8.41750875e-02
      1.68350171e-02 1.04377106e-01 8.58585835e-02 8.92255902e-02
      1.16161615e-01 1.51515156e-02 8.41750875e-02 1.36363640e-01
      1.68350171e-02 0. 6.90235719e-02 1.81818187e-01 2.91245788e-01
      3.04713815e-01 2.22222239e-01 3.60269368e-01 1.49831653e-01
      1.53198659e-01 3.36700350e-01 1.51515156e-01 4.54545438e-01
      1.51515156e-01 3.21548820e-01 3.58585864e-01 1.68350175e-01
      2.52525270e-01 7.47474730e-01</_>
    <_>
      6.22406639e-02 6.22406639e-02 1.86721999e-02 0. 2.07468891e-03
      3.94190885e-02 2.03319505e-01 9.95850638e-02 2.07468891e-03
      3.31950225e-02 1.90871373e-01 9.95850638e-02 7.46887997e-02
      6.22406639e-02 4.97925319e-02 0. 1.43153533e-01 3.44398350e-01
      3.25726151e-01 1.86721995e-01 1.41078845e-01 1.97095439e-01
      4.62655604e-01 1.99170128e-01 2.92531133e-01 3.11203331e-01
      1.65975109e-01 3.21576774e-01 1.72199175e-01 3.40248972e-01
      4.66804981e-01 5.33195019e-01</_>
    <_>
      8.02069828e-02 9.05562714e-02 6.98576942e-02 4.91591208e-02 0.
      5.17464429e-02 1.02199227e-01 5.17464429e-02 0. 6.59767166e-02
      9.83182415e-02 4.52781357e-02 8.66752937e-02 9.44372565e-02
      6.46830499e-02 4.91591208e-02 2.89780051e-01 2.05692112e-01
      2.09573090e-01 2.94954717e-01 1.66882277e-01 3.02716672e-01
      3.35058212e-01 1.95342824e-01 2.79430777e-01 3.04010361e-01
      2.22509697e-01 2.72962481e-01 2.47089267e-01 2.57438540e-01
      3.18240643e-01 6.81759298e-01</_>
    <_>
      5.89519665e-02 1.31004363e-01 1.31004363e-01 5.89519665e-02
      6.55021816e-02 0. 0. 3.49344984e-02 6.55021816e-02 0. 0.
      3.49344984e-02 8.51528421e-02 1.31004363e-01 1.31004363e-01
      7.20524043e-02 3.79912674e-01 1.00436680e-01 1.00436680e-01
      4.19213951e-01 2.75109172e-01 2.62008727e-01 2.62008727e-01
      2.00873360e-01 1.31004363e-01 1.44104809e-01 2.55458534e-01
      2.24890828e-01 2.81659395e-01 2.37991259e-01 0. 1.</_>
    <_>
      5.89519665e-02 1.31004363e-01 1.31004363e-01 5.89519665e-02
      6.55021816e-02 0. 0. 3.49344984e-02 6.55021816e-02 0. 0.
      3.49344984e-02 8.51528421e-02 1.31004363e-01 1.31004363e-01
      7.20524043e-02 3.79912674e-01 1.00436680e-01 1.00436680e-01
      4.19213951e-01 2.75109172e-01 2.62008727e-01 2.62008727e-01
      2.00873360e-01 1.31004363e-01 1.44104809e-01 2.55458534e-01
      2.24890828e-01 2.81659395e-01 2.37991259e-01 0. 1.</_>
    <_>
      5.89519665e-02 1.31004363e-01 1.31004363e-01 5.89519665e-02
      6.55021816e-02 0. 0. 3.49344984e-02 6.55021816e-02 0. 0.
      3.49344984e-02 8.51528421e-02 1.31004363e-01 1.31004363e-01
      7.20524043e-02 3.79912674e-01 1.00436680e-01 1.00436680e-01
      4.19213951e-01 2.75109172e-01 2.62008727e-01 2.62008727e-01
      2.00873360e-01 1.31004363e-01 1.44104809e-01 2.55458534e-01
      2.24890828e-01 2.81659395e-01 2.37991259e-01 0. 1.</_>
    <_>
      5.89519665e-02 1.31004363e-01 1.31004363e-01 5.89519665e-02
      6.55021816e-02 0. 0. 3.49344984e-02 6.55021816e-02 0. 0.
      3.49344984e-02 8.51528421e-02 1.31004363e-01 1.31004363e-01
      7.20524043e-02 3.79912674e-01 1.00436680e-01 1.00436680e-01
      4.19213951e-01 2.75109172e-01 2.62008727e-01 2.62008727e-01
      2.00873360e-01 1.31004363e-01 1.44104809e-01 2.55458534e-01
      2.24890828e-01 2.81659395e-01 2.37991259e-01 0. 1.</_>
    <_>
      1.47783253e-02 0. 0. 2.95566507e-02 1.18226603e-01 7.38916248e-02
      7.38916248e-02 1.28078818e-01 1.65024623e-01 7.38916248e-02
      9.85221639e-02 1.65024623e-01 2.95566507e-02 0. 0. 2.95566507e-02
      4.43349779e-02 3.94088686e-01 5.02463043e-01 5.91133013e-02
      3.27586204e-01 1.47783250e-01 1.72413796e-01 3.52216750e-01
      2.16748759e-01 2.06896544e-01 2.06896558e-01 2.31527090e-01
      2.68472910e-01 2.93103456e-01 3.20197046e-01 6.79802954e-01</_>
    <_>
      5.89519665e-02 1.31004363e-01 1.31004363e-01 5.89519665e-02
      6.55021816e-02 0. 0. 3.49344984e-02 6.55021816e-02 0. 0.
      3.49344984e-02 8.51528421e-02 1.31004363e-01 1.31004363e-01
      7.20524043e-02 3.79912674e-01 1.00436680e-01 1.00436680e-01
      4.19213951e-01 2.75109172e-01 2.62008727e-01 2.62008727e-01
      2.00873360e-01 1.31004363e-01 1.44104809e-01 2.55458534e-01
      2.24890828e-01 2.81659395e-01 2.37991259e-01 0. 1.</_>
    <_>
      5.89519665e-02 1.31004363e-01 1.31004363e-01 5.89519665e-02
      6.55021816e-02 0. 0. 3.49344984e-02 6.55021816e-02 0. 0.
      3.49344984e-02 8.51528421e-02 1.31004363e-01 1.31004363e-01
      7.20524043e-02 3.79912674e-01 1.00436680e-01 1.00436680e-01
      4.19213951e-01 2.75109172e-01 2.62008727e-01 2.62008727e-01
      2.00873360e-01 1.31004363e-01 1.44104809e-01 2.55458534e-01
      2.24890828e-01 2.81659395e-01 2.37991259e-01 0. 1.</_>
    <_>
      6.30252138e-02 1.12044819e-01 1.03641458e-01 2.94117648e-02
      7.00280145e-02 0. 5.60224103e-03 8.40336159e-02 7.28291348e-02
      2.80112047e-02 5.04201688e-02 8.40336159e-02 4.90196086e-02
      8.40336159e-02 1.03641458e-01 6.02240898e-02 3.08123261e-01
      1.59663871e-01 2.35294133e-01 2.96918780e-01 2.54901975e-01
      2.24089652e-01 2.63305336e-01 2.57703096e-01 1.73669472e-01
      1.12044826e-01 2.45098054e-01 2.22689092e-01 2.33893573e-01
      2.98319340e-01 8.40336159e-02 9.15966451e-01</_>
    <_>
      5.89519665e-02 1.31004363e-01 1.31004363e-01 5.89519665e-02
      6.55021816e-02 0. 0. 3.49344984e-02 6.55021816e-02 0. 0.
      3.49344984e-02 8.51528421e-02 1.31004363e-01 1.31004363e-01
      7.20524043e-02 3.79912674e-01 1.00436680e-01 1.00436680e-01
      4.19213951e-01 2.75109172e-01 2.62008727e-01 2.62008727e-01
      2.00873360e-01 1.31004363e-01 1.44104809e-01 2.55458534e-01
      2.24890828e-01 2.81659395e-01 2.37991259e-01 0. 1.</_>
    <_>
      7.32394382e-02 9.01408419e-02 5.91549277e-02 2.95774639e-02
      9.01408419e-02 7.18309879e-02 7.60563388e-02 5.07042259e-02
      9.15492922e-02 9.29577500e-02 1.11267604e-01 3.09859160e-02
      1.54929580e-02 4.78873253e-02 1.40845068e-02 5.49295768e-02
      2.52112687e-01 2.88732409e-01 3.26760560e-01 1.32394373e-01
      2.70422518e-01 3.02816927e-01 2.60563374e-01 1.66197181e-01
      3.11267614e-01 2.14084521e-01 3.25352103e-01 2.15492949e-01
      2.47887328e-01 2.11267591e-01 3.52112681e-01 6.47887290e-01</_>
    <_>
      8.50340128e-02 8.50340128e-02 8.50340128e-02 6.46258518e-02
      7.48299286e-02 4.76190485e-02 6.29251674e-02 1.36054419e-02
      6.80272132e-02 3.57142873e-02 1.12244897e-01 2.55102050e-02
      6.29251674e-02 1.13945581e-01 1.70068033e-02 4.59183678e-02
      3.19727898e-01 1.98979586e-01 2.41496608e-01 2.39795923e-01
      2.90816337e-01 2.82312930e-01 2.77210891e-01 1.49659872e-01
      2.90816337e-01 2.26190478e-01 2.92517006e-01 2.26190478e-01
      2.80612230e-01 2.00680256e-01 2.58503407e-01 7.41496623e-01</_>
    <_>
      0. 0. 1.16504850e-02 7.37864077e-02 1.16504850e-02 0.
      3.88349523e-03 1.24271847e-01 1.45631075e-01 1.16504855e-01
      6.79611638e-02 1.24271847e-01 5.04854359e-02 6.99029118e-02
      1.24271847e-01 7.57281557e-02 8.54368955e-02 1.39805824e-01
      4.54368919e-01 3.20388347e-01 2.07766995e-01 1.86407775e-01
